solver_type L2R_L1LOSS_SVC_DUAL
nr_class 2
label 1 -1
nr_feature 42000
bias 10
w
-0.4478259689870764 
0.2276678128608593 
0.06538078667967261 
-0.0458238385180444 
-0.06379709407057746 
-0.1609902137982831 
-0.01711915099412518 
-0.227392884033618 
0.237238648228407 
-0.02256010796294572 
0.1319662753407931 
0.0405275893198934 
-0.03223567032005994 
-0.1451872997935469 
0.04486856065891031 
-0.4699938857775811 
0.2855154294275646 
0.03884460517691898 
0.1856674996857283 
-0.04164189741931951 
0.1928508459022279 
-0.07316100473409191 
-0.03626379932157976 
-0.07991921834596669 
0.04487509358712644 
0.510471273899229 
-0.02460513940555539 
0.8014885562576587 
0.1192121709494994 
-0.0735996435111919 
-0.02874342118714479 
0.06579100078246225 
-0.03969180012973159 
0.08280712324905419 
0.02603391643348179 
-0.07279159035674446 
-0.1349254995557323 
0.1932626094499611 
-0.02649905582215714 
0.2727804218634572 
-0.02030291157675468 
-0.01279416950712842 
0.0119242920138541 
-0.08296140880794804 
-0.07801768944650486 
0.04903955826775044 
-0.05588352572857287 
-0.01241075429375355 
-0.13451844136079 
0.1323867772794554 
-0.09341145644469906 
-0.08416215182533247 
-0.07692438735995343 
-0.1602669989830786 
0.07100223952604405 
-0.02608663532443893 
-0.0235126779316238 
0.03733094561374425 
-0.035799461040298 
0.7767426541991986 
-0.1054008105852011 
0.1426971282043586 
-0.1624848424526079 
-0.02063794670362244 
0.02019978046262195 
0.05339325875718864 
-0.0376777052771338 
0.04435371037777129 
0.02183848620334321 
0.1503568107852152 
-0.07185339522159057 
-0.07257764681824334 
-0.04474113742447059 
-0.002856992137753811 
0.01266785928142184 
0.05174435726430365 
0.2233535640669498 
0.05520045824369133 
0.1839442596269227 
-0.1488652424358871 
0.08804078688470603 
0.1860678861779415 
0.03789080666308834 
-0.4331577714510122 
-0.008046496534008046 
-0.02009159225526493 
-0.09119851334387458 
-0.0120072020995982 
-0.01066871158825976 
0.2656657053508831 
-0.09825406854466993 
-0.1081325601954654 
-0.08709523457544985 
0.07574831770517558 
-0.3485791005841467 
0.1696882475832566 
0.4281053019772845 
0.4276534623363281 
-0.1149761525166862 
0.06500298085429936 
-0.4937324526275459 
0.04925628881248797 
0.0316657920614143 
-0.007820993019440123 
-0.006555543760936941 
0.000741029495550509 
0.02309628616654043 
-0.1375257198667547 
0.03692862598100918 
0.02653513699017429 
-0.02391501989545077 
0.2138451946202965 
-0.08342655497141353 
-0.2400498905740935 
-0.3880649125961098 
-0.2658317920832722 
0.005736450374902606 
0.1054310252775308 
0.3140694876163931 
0.06249511178068173 
0.02267472627657514 
0.04323317450415313 
0.02988244727255843 
-0.09905533143775805 
0.0506270842770175 
0.1970424635398479 
-0.1198501527213607 
0.2852587056586626 
0.2042263684264445 
-0.054547101812814 
-0.1085888753693491 
0.1143788445712123 
0.1296125197784728 
-0.06857537321981032 
0.1168678320881275 
0.005657921496662899 
-0.0144345552333763 
0.1526135635338473 
-0.02866014604959509 
0.2946100275903769 
0.01823035040179127 
0.02830953354797595 
-0.06307926682142208 
0.01722172162504978 
-0.2919140501808276 
0.04912391461114359 
-0.06158420054219955 
-0.001150124280497899 
-0.3880783305991175 
-0.3991387309993625 
0.2543394112761788 
-0.001786254893112896 
-0.1023462194011465 
-0.06107647800855441 
-0.005969631666916625 
-0.05528167863495217 
-0.08682715956620751 
0.04016999035902762 
0.05164882069632929 
0.3448150678696665 
-0.08206060806356141 
0.1538856707480193 
0.3826208133741255 
0.02805173065631331 
0.03422085053705894 
-0.1724377913205974 
0.03518227380529363 
-0.01221537514149631 
-0.01090569089295287 
0.09944247129839327 
-0.01890694452010369 
-0.2522405846518097 
-0.06695279453774974 
0.01446493809812686 
-0.02815161895834508 
0.2618597720388585 
0.1124875770809376 
0.1385139792878327 
0.1886940346229009 
-0.02449939869524474 
0.1711194554430392 
0.1917252869399415 
0.09629043846144597 
-0.2546380409805505 
0.03612325941361148 
-0.04827548915181445 
0.0207484763249088 
0.03557507203224243 
-0.03704271430626888 
0.2499464368018008 
-0.09922210519305608 
-0.1109595620277689 
-0.004951294627366411 
0.1674342457480526 
-0.4663354772202001 
0.1924717248400002 
0.02738583544592326 
0.2717598847448926 
-0.1336686760593355 
0.03792240879577877 
0.3113853216879877 
0.5465743185335886 
-0.05832169771303959 
-0.05937251352748457 
-0.03308119565510544 
0.04428640102228391 
-0.06275741601215724 
0.04361163456312763 
0.3518394773404262 
-0.04634326765267609 
-0.04347504139200974 
0.02080213039331263 
0.0140188463914147 
-0.1502312719884213 
0.02733583858316602 
-0.1616398856869513 
0.04171159377189735 
0.2255289138416269 
0.118125492404646 
0.02324597478359649 
0.04414650729291719 
0.00389797604567968 
0.005387180594062555 
-0.1179117921987254 
0.06893052469311198 
0.5416602481820926 
-0.08738237288282097 
0.1928751565148607 
-0.1405948576850909 
-0.04743178945476956 
0.145189230602832 
0.1100428948172205 
0.1232883124446534 
0.1291231979474137 
0.1940620393011984 
0.0610329625477701 
-0.09411179701828462 
0.1095718583733032 
-0.05983268389465154 
0.2155764696503508 
-0.06399967388785027 
0.0300946178020634 
-0.02804758297616715 
0.1348104339488652 
-0.08525824501477333 
0.0820738340942915 
-0.03652651332402271 
-0.07635184052970226 
0.01505149226726483 
0.08260998388642629 
0.09120740650567045 
-0.005547695463138006 
-0.07214618765280074 
0.07645298095188816 
-0.093136917905018 
-0.1351663334062616 
0.04222800280058327 
-0.006770270765664155 
0.02493456320803853 
0.2402552533731691 
0.02038944251096907 
0.1444477990026067 
0.05992106042694775 
-0.03323644039007338 
-0.03083471763541894 
-0.100604054345851 
-0.07037684574278753 
0.09449729707230718 
-0.01301212449400355 
0.05638261605774645 
0.08822787354931395 
0.01991757718730195 
-0.03694141707829067 
0.02290231438665232 
-0.008263416801765074 
0.1700052196641856 
0.0697358554009077 
0.007754261504442216 
0.4237198699438171 
-0.01779243308014076 
0.05138446985568858 
0.2873851896881182 
0.1968130051459475 
-0.2232588875958317 
-0.04439141918123124 
0.08752828725353264 
0.1554450843079984 
0.04969592591903754 
-0.06749013633148197 
0.6692844998211827 
0.2154850467933479 
-0.2162112641161138 
-0.04575798932384433 
0.1171740813083084 
0.00430531316991358 
0.3578888685598534 
0.2695408866218865 
0.7845168776835778 
-0.1404290986171384 
-0.01534768182766196 
-0.08705505628316676 
0.2538758228453204 
0.1461686980369695 
-0.05396357777572401 
-0.04524077830516177 
-0.05382620494751532 
-0.04908653416259928 
0.1153021616866497 
0.1529195590312165 
-0.003110994167042022 
0.1622688808873913 
0.1385113575906402 
0.002727985680481022 
-0.1567596266371732 
0.1553764638999791 
-0.02286561357069537 
0.1569784605082442 
0.2217488504183195 
-0.01256136879343143 
0.03637040019912342 
0.01256043025474171 
0.1427094987200203 
-0.06242412621486659 
-0.1361468303204145 
0.15617507562604 
0.1923676479756725 
-0.01515719243062121 
0.1118530852480828 
0.1520365103438557 
-0.0105658601379403 
0.03977367055379311 
-0.03259687891922682 
0.1741039983483412 
0.3715290616974036 
0.2899721581221143 
-0.0382139073747345 
0.02574830437450801 
0.01512352133319368 
-0.07761637862783574 
0.1662294198743492 
-0.08438818743132132 
0.05837782544862779 
-0.01390762941402576 
0.005059465112224385 
-0.02892645562936872 
0.03126737564257965 
-0.01394199454251452 
-0.01056223028537005 
-0.1276670078025234 
0.29690242615545 
0.06615141421341104 
-0.05132508695688836 
-0.1296495637479222 
0.06185999237674322 
0.06042069175006263 
-0.001098488121686571 
-0.09428938104265817 
0.03410796611834667 
-0.05923016246209362 
0.4928434459220195 
0.04776630233358202 
0.1499995767999254 
0.1098449795144884 
0.03468001887443208 
0.0007893773071277831 
0.09251586656331187 
0.275590773885685 
-0.09675218419605897 
-0.02551570050797872 
0.1627210340439252 
0.1827273723498982 
-0.1879947759705875 
0.06442421974115742 
0.07315231325625544 
-0.002511829316795796 
0.1591757854842541 
0.228610630772566 
0.07807485885939469 
0.165047668131832 
0.1638940976291937 
-0.03810728681283224 
0.03362054359439424 
0.2582003617427152 
-0.1107237885997379 
0.02390840186847331 
-0.01563026981728037 
0.03984736239886258 
0.1340543529446399 
0.02710096622188071 
0.07158215490059831 
-0.01442278150483359 
-0.1163973318896774 
-0.01731499764713625 
0.1114927457051443 
-0.3000596866932051 
0.06271128101988549 
0.01728714827086805 
-0.009302067812021799 
-0.01364756588895436 
-0.026535076675312 
-0.4268857762037633 
0.2477605304794589 
0.008193525658917268 
-0.0144095093105046 
-0.004059360043053914 
-0.0003928365450550248 
0.007960599547523334 
-0.1579980331206567 
0.01467629605876148 
0.02408417900087732 
-0.02368882309920369 
0.2218907119439873 
-0.08255995559537287 
-0.2657714470865627 
-0.3367936063908567 
-0.2492330002438283 
0.05170685838845086 
0.21902369294521 
0.3739875984566176 
0.05707588050105748 
0.01265243002996883 
0.05651873968745578 
0.02635262251187756 
-0.1053483694191184 
0.0462326034124942 
0.2381841442232555 
-0.1243004507718443 
0.3641760107204511 
0.1775809160229355 
-0.06239151286326548 
-0.09636330348925345 
0.09272418781950303 
0.1121406943753814 
-0.0113285413646613 
0.1343529905254727 
0.02723199596886482 
-0.02626122361719234 
0.1750530340340645 
-0.03948320114199756 
0.330830483982923 
0.01059779498574037 
0.02268460810271342 
-0.06970803756340495 
0.03282838567629112 
-0.1721591814190613 
0.0304180991146444 
-0.07232191261765976 
0.004217799295815444 
-0.2911236688483708 
-0.3931700052103135 
0.2076814294105457 
-0.01161895595702065 
-0.06808088333665958 
-0.04693871924115652 
0.03958429580596853 
-0.06307384116298557 
-0.08361936427893359 
0.04495480635851552 
0.05103188333937325 
0.4447809256150922 
-0.1121087289111038 
0.147127004304316 
0.3535556383756845 
0.03858592446230737 
0.0295989023881269 
-0.1350280489016278 
0.02293144151734356 
0.0004770334877500957 
-0.01671646914219326 
0.1133480045520241 
-0.06932671081661795 
-0.2199832409370569 
-0.0464531120897615 
0.01724050728243179 
-0.0158243335879759 
0.2631773451061171 
0.1239997760200032 
0.1330182946795525 
0.2065078569821578 
0.02784227843424995 
0.2241919412598379 
0.1676546537177209 
0.1856656003245378 
-0.2498340507534181 
0.04743729968048716 
-0.05306947481377686 
0.01988790774724425 
0.02793122292603445 
-0.03055994378251512 
0.3824009499739458 
-0.1093772345081289 
-0.1230688132497408 
-0.02262197517176727 
0.2044494076932099 
-0.3703050522785314 
0.2283580904939205 
0.08530253591997418 
0.4005136098705941 
-0.1427329825934526 
0.0243590459479027 
-0.4141897198163266 
-0.161428632959698 
0.05104753818347369 
0.00782314585979043 
-0.04004695165406628 
0.03964554570327525 
0.03166926828334329 
-0.1580652760433894 
-0.03082301242350304 
-0.02375113757756933 
-0.07091636259135194 
0.3015442298873782 
-0.04022398123697983 
-0.1976844894265408 
-0.0844951504271392 
-0.3922259141446948 
0.0631312870957402 
0.2658689681216398 
-0.1397349599482811 
-0.03764724834359447 
0.1035863441945127 
0.1254705360448854 
0.02132227314488865 
0.02477331558850855 
0.05089004148827118 
0.409501368347377 
0.002006871225157387 
0.4195461014657732 
0.2577081069849254 
-0.03165882494843265 
-0.07061988392441931 
0.1124948573852457 
0.2436726579873557 
0.1892554389481714 
0.1100005836788436 
0.03472317294222732 
0.04860250686114736 
0.1424060035045689 
0.004562846623422529 
0.3541994927929298 
0.02936820380403025 
-0.02399346182947566 
0.1319875876585811 
-0.07937323850459513 
-0.2068138357517178 
0.0790536200092827 
-0.08209420773258583 
0.04646958374015182 
-0.4882418182162036 
-0.1216453069399432 
0.4602238762162747 
-0.05109053274524545 
-0.2160098815353581 
0.0769115221840409 
-0.02829383047775692 
0.09744892377637064 
-0.06509438539302433 
0.009860531158892806 
-0.06517798620264025 
0.1780942619038346 
-0.246855893455159 
0.1989343719576716 
0.3357902736019013 
0.1023715720336954 
0.03217361979276909 
0.08054334756920525 
0.08690887305226885 
0.01730542797164341 
-0.01692296695553393 
0.03682455778428308 
0.211666620928533 
-0.1119623396086578 
0.1036302919207111 
-0.004566240656619076 
-0.02299907734124434 
0.1613942160321839 
0.07911326436411663 
0.02091666692617143 
0.1413138902647282 
-0.0859608791336825 
0.08405557051052794 
0.1055817789879294 
-0.02563843489810878 
-0.3815246326971359 
0.01184728033148716 
0.2018146746021961 
0.0404968609989186 
0.03361030752700794 
-0.1706146012098116 
0.1197027345112636 
0.04260259110084688 
0.09889002501130266 
0.01541508811109926 
0.2190545570193878 
-0.1745718859401452 
0.08046884573076837 
0.1773554443642834 
0.1425224202463425 
0.06526947355772138 
0.1164757507097114 
-0.03288906434788466 
0.5491409286648438 
0.1271420851161591 
-0.05820387602241435 
-0.04955549332775884 
-0.04932708056044958 
-0.05788956411704665 
0.1300417117384157 
0.1761064972467977 
0.003331330045625571 
0.1089465765611594 
0.1588240479948637 
0.007347224354570859 
-0.1302129014457618 
0.2395161184257728 
0.01467945150184888 
0.2843012737560061 
0.2705191542003922 
0.06080401160811471 
0.01841399920944569 
0.01505970282101823 
0.135093506527855 
-0.05931177962595564 
-0.1460515706514495 
0.175741842458349 
0.459480745707168 
-0.002905631558547052 
0.18148505592419 
0.2269460265420297 
-0.02844150714263236 
0.02080865279387943 
-0.02801440412423106 
0.1686067791316654 
0.3512018419586407 
0.3100319183232053 
-0.0518404946967493 
0.01915700799211328 
0.0633291566520862 
-0.0815278274122625 
0.1844380953054966 
-0.08759162996141916 
0.04572343523959284 
-0.02374750739931934 
0.006788628785685893 
0.03353356061040109 
0.03525216140702162 
-0.007835269441715701 
-0.009818213728788348 
-0.08674199970306587 
0.3137191041270538 
0.07062396823202806 
-0.03897312988407324 
-0.132362131546118 
0.04624629428970711 
0.05581058632201306 
0.003841029368153075 
-0.09182449813470037 
0.02949202701673202 
-0.06301539095579828 
0.6746334883215358 
0.03181595076361185 
0.1362582575512887 
0.08223210590549987 
0.03566549397603475 
-0.008144450850955323 
0.0773992109628921 
0.2600786367353551 
-0.1136727862444659 
-0.03397965585035453 
0.1994961531848512 
0.2123118135324501 
-0.1578512204749951 
0.06535036990356047 
0.0503180548775576 
0.008610579612265464 
0.173126873694118 
0.2263874384824679 
0.1078969000785624 
0.1888313159525633 
0.1625264691855174 
0.0253521805600776 
0.03610506270201912 
0.3640109839099574 
-0.07378264219227786 
0.01112359619013091 
-0.03982807585951841 
0.02956454070678533 
0.1317205911143224 
0.01524832538250829 
0.2208088567941426 
0.04868588484639377 
-0.119577049548351 
-0.01170988274254403 
0.07813484864228398 
-0.2363273196913465 
0.09509339326672156 
0.07032004793436021 
0.0439291098308351 
-0.04683126300254273 
-0.02526875413459396 
-0.1486934516573309 
0.4422828310280322 
0.1199250126689815 
-0.07811565519740082 
-0.02091507415421381 
-0.1599060352236458 
-0.07073637350151268 
0.1579411834899379 
0.06664294569284544 
-0.03388750389835433 
0.132360075240909 
0.121976536448991 
0.05917941170079129 
-0.08208389811107299 
0.04267656352117485 
0.01767390541537607 
0.29925322183239 
0.1947377146291273 
-0.01270364920847318 
0.01792564210923355 
0.04972152362792951 
-0.1248747246393601 
-0.02901682818358123 
-0.03291599983819355 
0.007169635967315766 
0.1878522480680949 
0.01533437112838267 
0.1878350067618432 
0.009628459388396097 
0.01792328707353091 
0.08267797812314955 
0.2766863198092312 
0.268938937596306 
0.2091995260214316 
0.2788130043510541 
0.1706632019150827 
0.1083711146276238 
0.07043934853672414 
0.02306123371812151 
0.2210494562190949 
-0.02946121436107694 
-0.04051314203495103 
0.02181920157169831 
-0.02203017530717446 
0.02513038772842887 
-0.008730112576834197 
-0.02692273481031624 
-0.05322628311344577 
-0.02392465117295209 
-0.04463738242930887 
0.115324327168484 
-0.05693969927915075 
-0.1230436326569576 
0.2321736954504213 
-0.1084412399762835 
0.05274733848241337 
-0.06857259370877053 
0.04588027948369645 
-0.02355191709892804 
0.1162664808529444 
0.05967132776819661 
-0.05494048752177467 
0.04701616096067412 
0.0313099870551917 
-0.006957903809354116 
-0.1522948929185459 
0.1039683582590168 
-0.09180222176962695 
-0.02555078811996259 
-0.01428560273253888 
0.2110729917170603 
-0.1187079842256026 
0.2365286604135541 
0.03765088021184862 
-0.01532178978819232 
0.1069403079447514 
0.2498316623301032 
0.1717499633824513 
0.2087520396157927 
0.3930278358906694 
0.2412369078113354 
0.1783737943269277 
0.1682790297298133 
-0.05728172787190122 
0.0298464172882364 
-0.02780958110604807 
0.2055530847345462 
0.1103447463034907 
-0.04549707350797763 
0.1578559403217255 
0.1525887599567202 
0.01120559147453301 
-0.04592141531688554 
-0.07157142691610617 
-0.08191184289464955 
0.3130152149302639 
0.235681655580114 
-0.09825306621633827 
-0.08096233374320759 
0.1037150039285553 
-0.2837756623368325 
-0.2187115662879097 
0.0321900352050281 
0.005728934745584143 
-0.03525774416901506 
0.05170106691624715 
0.02711771851035642 
-0.1775892652653041 
-0.004055433055665314 
-0.0188664864152059 
-0.1182780677840754 
0.2744413810086198 
-0.03913674278756593 
-0.1899573983934011 
-0.03081783698689998 
-0.4231254657807184 
0.09191881941472459 
0.3581245032143545 
-0.1127770821631793 
-0.05182856315066283 
0.1135027265481634 
0.1268411198724296 
0.01464267219303052 
0.008923865731136857 
0.06482142898753893 
0.3664446129219652 
-0.007418251069140864 
0.5397696301235655 
0.2788844984407459 
-0.03369030056344522 
-0.06974057274311093 
0.1200392118689785 
0.2087956999067908 
0.1830284946450242 
0.1367386181593635 
0.01622357627550802 
0.00839992358822734 
0.09302512096452908 
-0.001674973057071273 
0.3586081735292836 
0.02615879218069918 
-0.02253668524006719 
0.1117665600465595 
-0.05595086871661242 
-0.1120623145023469 
0.07740198633240489 
-0.07300864560921475 
0.04564038968888685 
-0.4648115613614014 
-0.103118882233169 
0.4112045826577992 
-0.05326585956298881 
-0.2111871953545617 
0.07129527262203188 
0.005494098554106938 
0.06937208281385857 
-0.03288372880853754 
0.003439013850455159 
-0.06139901039856319 
0.1918055696122072 
-0.2552815893023526 
0.1551179455586477 
0.2907756450444053 
0.09872787755075851 
0.03235189051887596 
0.07698708583293941 
0.06369299858204464 
0.02390988082957472 
-0.01378900682253512 
0.03875368698976268 
0.1576743429431161 
-0.08613850154131823 
0.1013200068127944 
-0.009833724442065843 
-0.02706552904376433 
0.1437305028554804 
0.0958481359284209 
0.01013951738771366 
0.1577517232171751 
-0.03073053128257067 
0.0555343013266987 
0.1383967661178261 
-0.08137227026946435 
-0.3211948929279729 
-0.0001603858702694831 
0.1674177091162108 
0.02458614961237433 
0.03689768525768108 
-0.1751554364147343 
0.1014486898598296 
-0.01638556285867604 
0.1342473960808825 
0.008526410993248808 
0.2090412852101741 
-0.1413170177022562 
0.1330528565602239 
0.205307851055671 
0.2317807880781402 
0.0008548394734251057 
0.1146085708431775 
0.007906884677467032 
0.2753775738212871 
0.180231512777048 
0.03649591617893722 
-0.05250716755022812 
-0.08419088733065364 
-0.0419423723082691 
-0.01722732512277511 
-0.07343090126504744 
0.04727937701251561 
-0.05649066611758718 
-0.02175647935913949 
-0.09758247083520333 
-0.07651118119393326 
-0.5218239736836137 
-0.05241102927908087 
0.1168295794044537 
0.04043359562017495 
0.1078492150846495 
-0.08028730854782365 
0.003764054887650609 
0.07097041430079573 
-0.05457666034413271 
0.09327567955309304 
0.08990684582795787 
0.2152952550103377 
0.01428588827349955 
0.2563626855634761 
-0.09653345738831998 
-0.04812533604541162 
-0.2397157270791014 
0.3516049194630438 
0.1069288796080405 
0.05817792046499929 
0.1022641464358705 
0.2195560808434131 
0.1246549643507153 
0.06417802894064957 
-0.01359370082238446 
0.1268978265979781 
0.0106835019007421 
0.06994500054411264 
0.02954483296927006 
0.006955557225333715 
-0.2976117152368624 
-0.05638390753771121 
0.03917914722909827 
-0.01541732533934556 
-0.3637203987586217 
-0.2711997027322137 
0.01255525625026095 
-0.07567477795277908 
-0.1328405340204931 
-0.02322618728373145 
0.009390574536497446 
-0.05972020624390566 
0.03236073576664152 
-0.008517240365211426 
-0.03059104096131884 
0.3628894371650341 
0.03627141974505382 
0.1582285816190396 
0.2016967929150357 
0.1667219773134699 
-0.04316874248013906 
0.1068273453414808 
0.1633562051818723 
0.004497368879188482 
0.01989806022570728 
0.2125207066767254 
-0.2823629159565919 
0.06667650812437773 
0.07337842412904032 
0.04218140705799796 
0.08638219358933345 
0.01520338472786228 
0.2671631433502072 
0.2051214720067994 
0.1180274620557212 
-0.2079585562023443 
0.1565355211688591 
0.03679915735701419 
0.375376396287856 
-0.2335927443179036 
0.02554290868718481 
0.008310731240403992 
0.009236069858248215 
0.0700488664640558 
0.02809292169798036 
0.4810828671590423 
-0.02617916194654751 
0.06275157292650885 
0.005228756521037171 
0.07179097492143839 
-0.4795689127641825 
0.04239015781249495 
0.2936517766667794 
0.02535952055637548 
0.02470833754849259 
-0.1007343532927896 
-0.167251851031215 
0.4169594188759783 
0.09782938999871468 
-0.06872723884526834 
-0.02253121671253424 
-0.1344005098066862 
-0.07009276938749186 
0.1476664316086419 
0.02551174086797569 
-0.04444340307589132 
0.0892197199883136 
0.1050727641767111 
0.07484195114555976 
-0.1188218486603328 
0.09611953070016334 
0.005048366105953184 
0.3215832233726237 
0.1643335980537451 
-0.04737499005888485 
0.02555536856359628 
0.06469846241668008 
-0.1024740380816282 
-0.02716183261435634 
-0.06425916768093086 
0.02115668442876485 
0.2920489485526507 
0.02134492361467706 
0.2088225946367094 
-0.01515696184548233 
0.01242313769972322 
0.09580629542711795 
0.2676355234754061 
0.2359642031963101 
0.2035922941968836 
0.2565183397095795 
0.1374283872401013 
0.0810816403181574 
0.08457666320684586 
0.02864187281681745 
0.1721305374039697 
-0.03265062447521749 
-0.03289292258921267 
0.01098279248495703 
-0.0306900098299832 
0.02298517614016625 
-0.008586400069966232 
-0.02355367894962389 
-0.06101230136181053 
-0.06431777421835377 
-0.02029827048045953 
0.1239064331873373 
-0.04364778727544782 
-0.09965895173706484 
0.2092490884707884 
-0.09878883130468992 
0.03991905125238633 
-0.05606241210987847 
0.01114995733238909 
-0.02765453779055729 
0.2591241718805112 
0.03711403811501858 
-0.06093087538367736 
0.05773168657727443 
0.02964847964524547 
-0.01090670517137499 
-0.1508293738709415 
0.07098612915927174 
-0.08540631873176646 
-0.01491152152008742 
-0.06471173076287963 
0.2077406488437451 
-0.1300868694924184 
0.2231564014906106 
0.02809726429426175 
-0.009786176711256788 
0.1051092838526861 
0.2575586075929768 
0.1607236958868535 
0.1923864977794469 
0.3390777632895626 
0.2506692093159067 
0.1760383719094354 
0.08223995357009012 
-0.04657974580406954 
0.02671141515736299 
-0.04854214640835812 
0.1877950344806962 
0.09810934730831997 
-0.06566149229258335 
0.1468870261658636 
0.2258703883128178 
8.072859045530367e-05 
-0.04263218880830228 
-0.1324061023753889 
-0.09332337340144695 
0.3089855518526897 
0.286220839540946 
-0.03329074208775697 
-0.07439872433639297 
0.1022499241673704 
0.4110085005572863 
0.3705230263517511 
0.02941302584512422 
-0.00609219516202554 
-0.08100361748255042 
-0.080787189486516 
-0.1239782505418758 
-0.135556494162237 
0.2986966101309412 
0.01801851265804355 
-0.07657565701562095 
-0.0151530923136543 
-0.05439660635432374 
-0.09764116624716929 
-0.1126445329980775 
-0.2056081838980474 
0.07855678935273465 
0.5702978794239203 
0.1856545510234205 
0.03183258535201289 
0.01506570270374863 
-0.01454270925490545 
-0.05798252176956654 
0.007973345600082483 
0.01407788999963831 
0.2223719869018662 
-0.09482942763430435 
0.3561917348015632 
1.07641834870519 
-0.08040161546596357 
0.1494786211389061 
0.3713288291703405 
0.1090986002814245 
0.2181268907777877 
-0.2043390068594203 
0.1923361432038855 
-0.1147279757476488 
-0.247621574262762 
-0.08443903675284116 
0.09081229838922081 
-0.04404079305787217 
0.08787984151372071 
-0.04507693308102985 
-0.1558685259657152 
-0.5809981822622889 
-0.03728984901938075 
-0.07416906153051044 
-0.07192373029568734 
-0.3013265431073336 
0.09293293342084342 
0.1381835339454396 
-0.1651714044308858 
-0.1937759631349552 
-0.03969323182250129 
0.01550953131743762 
-0.013293060610748 
-0.05703004109375068 
-0.04056150030686867 
-0.01626341021472514 
0.2733264969907198 
0.03275416279499459 
-0.1429440465865877 
0.166268769444253 
0.06340672814650329 
-0.04633660712538999 
0.02683119075181507 
0.1556784855510034 
-0.123350903843272 
-0.02478107554854884 
0.09567560920635507 
0.4286305889378106 
0.1274940815968751 
0.1316591414451746 
-0.0359163680016657 
0.01647648233851166 
-0.01509838620437652 
-0.00770974407514083 
0.06198720221917325 
0.358334091922838 
1.048864447094276 
-0.03857173330901652 
0.1177683284863437 
0.07996124219045944 
0.5327700971774529 
0.03903258683341924 
-0.1027048446737593 
0.1739341154547754 
0.07135563754635313 
0.02157426974648503 
0.3736355448805015 
-0.1569963347606332 
-0.1004204144942376 
-0.09936836176879714 
0.7419305539224911 
-0.06911352124211788 
-0.1227815608165307 
0.2739067302195319 
0.9384381013993637 
-0.0425072172372839 
-0.192880199548519 
-0.04674927134698647 
0.2613961547671536 
0.1672325121014373 
0.02788499153970323 
-0.04453860109779888 
-0.1129109883862035 
-0.04514176074683484 
-0.02145693338615385 
-0.1088244448858293 
0.04564954885550369 
-0.058353557088678 
-0.02274324266093095 
-0.07266450490063193 
-0.08016744231233223 
-0.5471627477611195 
-0.06550303098687084 
0.1227426847710827 
-0.007856640409706048 
0.1210262676508185 
-0.07448839255813422 
0.01539294378854887 
0.07211448582865042 
-0.04718745762075903 
0.05439240796167694 
0.1074960698068614 
0.2290280551784963 
0.01360325544411303 
0.225574500257471 
-0.08740353234785526 
-0.0621711974229219 
-0.2551216816893903 
0.3379367201744748 
0.09008393147382679 
0.02227479999792409 
0.08205313326818033 
0.2216800330244374 
0.08958592412284465 
0.06864032762298548 
-0.009390320339512502 
0.1262101285518216 
0.00560339845941163 
0.06917252568028517 
0.01379402814215741 
0.02351350699007966 
-0.2815452700884537 
-0.05940825876690538 
0.03704667948086677 
-0.01606194521002123 
-0.3102127429922614 
-0.3049836711074111 
-0.00535907586347721 
-0.08967463948401236 
-0.1125731331727259 
-0.03507902969617919 
0.02757420644993586 
-0.06465307570736627 
0.03700537179956852 
0.009644033048441537 
-0.03035514482252494 
0.3493585656661325 
0.06814934500178516 
0.1410682910573713 
0.2020785667427862 
0.1636540898709652 
-0.05265459655869333 
0.09282275538718331 
0.1818854269855595 
0.005809269199578923 
0.02050299909484693 
0.2227208473722285 
-0.3483481440917607 
0.07279981813643267 
0.03907471790293601 
0.03706993328202046 
0.07662923658483613 
-0.01750517589838143 
0.2431400287803248 
0.1881581491135169 
0.07803176974092441 
-0.2039749776303025 
0.1699859495601646 
0.05436191244626886 
0.3493916735082485 
-0.2538083403382072 
0.02172306002055767 
-0.01713235002153828 
0.003572867360220133 
0.06462865615308663 
0.0143026514676759 
0.5198976840191692 
-0.05217913919283061 
0.03916754459019674 
-0.007414426528287443 
0.06899365549873371 
-0.5093232905184754 
0.01681969052504653 
0.3094291385508908 
-0.01413075577239154 
0.004124049078306774 
-0.09607589055922243 
-0.1332413160773145 
0.1037303613509278 
0.04319307227239011 
-0.01113909502331927 
-0.01309063312452926 
0.02732315680964883 
-0.04054697862005615 
-0.2180962452682576 
-0.4929319256511517 
-0.009094481382031569 
0.05070270218866903 
0.2621187349680346 
0.06250573310650373 
-0.1484057303289172 
-0.04524512471327372 
-0.2653103351643615 
0.2949443524333897 
0.09821111564353614 
0.2134937186817919 
0.002023633808308826 
0.1174412529663428 
0.2422512743268881 
-0.07217204235048864 
0.01982184165561545 
0.06200946756534206 
0.4704372498580419 
-0.01067666622109741 
0.3051643292563831 
0.1632215139059963 
-0.01635810749750302 
0.05712147316533554 
0.1355649753531759 
0.009042839434769332 
0.1435168662277965 
0.1971141207456661 
0.07255794902928127 
0.06225156485005942 
0.230623199090086 
-0.02360593161533914 
0.2215025480368989 
-0.03085630652820439 
-0.03997261671551899 
0.07206677791858621 
0.06251734671580818 
0.04263492102618615 
0.07338810668657464 
-0.03478184516319392 
-0.02608520922152367 
-0.3822364631350426 
-0.007854735373093171 
0.2712267841346844 
-0.1075829659272179 
-0.2575931252999887 
0.01717671636791537 
-0.004467529364914542 
0.01177964311355682 
0.02726236575820346 
0.07389176709134246 
-0.001282608747547601 
0.4711791937346222 
-0.08125168542349059 
0.1158186317501986 
-0.01572623760664295 
0.08324710793210818 
0.003213124115736525 
-0.005759774828600309 
0.1026803716739317 
0.02294836972179807 
-0.003353487666631623 
0.06913168704170301 
0.0803629144004314 
-0.113094374718495 
0.1898664403410943 
-0.01095412478340709 
0.1165482128978647 
0.01924696053518797 
0.1009031802497213 
0.06728457084474941 
0.1930108949660511 
-0.0538476169199535 
0.169180303636075 
0.2232921531112522 
0.2920759880100571 
-0.5310164512665585 
0.07829159213326256 
0.1030850571849553 
0.1685997994148755 
-0.134479641415702 
0.03508006521776828 
0.6264737402396765 
-0.1607921685560319 
0.003738219492684791 
-0.02461447998207904 
-0.003778949123146923 
-0.03174411500460593 
-0.1431378364823351 
0.151156393690083 
-0.2432955494718639 
-0.08077805834746653 
0.100731894660707 
0.2136244078555689 
0.3943118670650141 
0.02707790102154469 
-0.01679439542384531 
-0.05576692316334599 
-0.08525368970544717 
-0.1159789783105692 
-0.1625945968658453 
0.1728448029870978 
0.02328001578729417 
-0.1086758068037664 
-0.04899448314832144 
-0.07010144118491919 
-0.07763664123025379 
-0.1105291856894891 
-0.2071146389456311 
0.118771781349095 
0.6341156164767877 
0.1802293078966556 
0.0380960874944872 
0.02076401944751258 
-0.0123574840497994 
-0.06370695903150446 
0.0259368431387129 
0.01704410982453909 
0.2114102245963909 
-0.08574349147310514 
0.3958408047630747 
0.8927747986452681 
-0.07302008949295992 
0.09285734331167481 
0.3918460829729206 
0.09200052698417785 
0.2318001888306002 
-0.2321204219147832 
0.1709152795534603 
-0.1333219567498363 
-0.2269628702109832 
-0.07819339151563796 
0.05620514931326336 
-0.05275301517758757 
0.09059531565581461 
-0.06839330208320935 
-0.1217784643805235 
-0.4581462961227067 
-0.02726740474232769 
-0.07071800399047343 
-0.0680894455309511 
-0.312941360648811 
0.002009427266351248 
0.1269664824410089 
-0.1647564719241604 
-0.1529440000573615 
-0.008231773577068155 
0.03028595965211737 
0.008405517538814888 
-0.05114676098447309 
-0.04062312580896402 
-0.003337560386639784 
0.2645650535349814 
0.0484793629517538 
-0.1641948602623172 
0.1960081296359674 
0.05497274107393935 
-0.04981329979274559 
0.05495996436941285 
0.0953243248426003 
-0.1145533198762975 
-0.02675572911836288 
0.04805664856811343 
0.4108907607298682 
0.06234765607069643 
0.1440329504139358 
-0.0326124251615143 
0.01340466439953486 
-0.08826727037225238 
-0.008064972568173618 
0.06236124367271468 
0.3387553665965392 
1.057506479597945 
-0.02574844464583388 
0.08370489596592287 
-0.03847410119438814 
0.4034777849096555 
0.02777688482667569 
-0.113741783378818 
0.1634449394096787 
0.06332746434754431 
0.02500880436666575 
0.4128760858154493 
-0.1545635503946725 
-0.09573909137258529 
-0.09434627649037194 
0.6849817942751195 
-0.1143348372203566 
-0.1918388771573187 
0.314136364445542 
0.7729905203624305 
-0.05717992549723295 
-0.1665128061768099 
0.5948074021185961 
0.02419816110332735 
0.03437142566961606 
-0.05920227355237237 
-0.07384474224597416 
-0.1117732009889783 
-0.08008505442364722 
-0.1262683772870994 
1.341829845852581 
-0.00713499802912917 
-0.08693410874999793 
0.1698652783346744 
0.05843692012490227 
-0.2772767840731371 
0.05761087978371252 
0.06475525432535073 
0.3008112976745042 
0.7191009540279016 
0.01028760901995894 
0.04040988142669 
-0.09350020086337181 
-0.371572875102592 
-0.04297205386502916 
-0.05217645770902125 
0.06260800345682681 
0.1520203113658469 
-0.1217349512466961 
0.2120421381183762 
0.1014170884296906 
-0.04837120684075717 
0.145364474318726 
0.1382757699559446 
0.004173533642231366 
0.3532166264783899 
-0.04979092338631853 
0.1249159666438198 
-0.1655001790812478 
-0.009349317605918311 
-0.04508541575677686 
0.05124698564838856 
-0.01030295966159302 
-0.01623982397362313 
0.08941253743466203 
-0.08062444834061228 
-0.1099869840129057 
-0.03127615073334138 
-0.02540302442401636 
-0.01274186260649953 
-0.4469165434775313 
0.2189161631179817 
-0.173945251932302 
-0.1472007402769409 
-0.1905887407310706 
0.1996882543695442 
0.1332644735403885 
-0.01697578186813181 
0.0649692286683466 
-0.0321867852485491 
0.01205799633986482 
0.3539760407940568 
0.0464521821165958 
0.03582009469483746 
0.1044463308058535 
-0.05925734967693806 
-0.01511973600208394 
0.06446680638917716 
0.2682064755769002 
0.04017404593499118 
-0.003115119047702657 
-0.04171504175950069 
0.04533256351396903 
0.1232239574434417 
-0.03280108639847117 
-0.00185059489292119 
0.05067281064227564 
0.25490550263469 
-0.07803286751145584 
0.1569001692637612 
0.4953821159061779 
0.0917008619093555 
-0.08664823099191563 
0.1288674871619461 
0.2782941632657512 
-0.08965362367872479 
0.04159023748503447 
-0.1466183481957239 
0.2678310684813156 
-0.0793985629235682 
-0.1157889031837407 
0.3679462180743484 
-0.094547230029811 
-0.01705527575196888 
-0.04626963581452336 
0.191610405021325 
-0.04049742967995359 
-0.009634829386606288 
0.1375846595530385 
0.6135364094405097 
0.02165493191086608 
-0.02031723314532995 
-0.1522998104669502 
0.2061893428826074 
0.04480230348158944 
-0.002370655119362816 
-0.01458400579892668 
0.009331295872872567 
-0.04166014451331548 
-0.2350325176687219 
-0.5385237991006324 
-0.003058538987997132 
0.05939203864748906 
0.2634979516781297 
0.07623994836814785 
-0.1178240224710849 
-0.006552234554743096 
-0.2453348927295862 
0.2688025612677439 
0.1094888142720384 
0.2585389606292133 
0.01098894069647309 
0.1407960339984435 
0.2566876131911845 
-0.06428410471198415 
0.05237088161553987 
0.05545564492305124 
0.4262062547690794 
-0.003859890220638173 
0.2792443884774952 
0.1917652395050074 
-0.02213349688708785 
0.05981855606959398 
0.150321953081814 
0.02676758398039277 
0.1663780125832729 
0.190791782473915 
0.08271410157812727 
0.07908346266936747 
0.233276425244793 
-0.02697437100375114 
0.274467017139453 
-0.03848412245087816 
-0.03340813875164458 
0.09174443731572901 
0.09995574350925959 
0.1244012573889679 
0.06661465814639665 
-0.02592393425490274 
-0.03082185502708171 
-0.3142246454721852 
-0.01058214393302269 
0.2679763087538369 
-0.1254832719056787 
-0.2475717912541074 
0.004940047649571522 
-0.001283140285445436 
0.01546681827328212 
0.0412673941068608 
0.07992143536287256 
-0.01747407930071373 
0.4518002458295081 
-0.05148114145686764 
0.1206793333144708 
0.003196942365292246 
0.08129924168087158 
0.002531132885757415 
-0.01171652161134095 
0.117250180179603 
0.02892097515859227 
-0.01060935096920029 
0.09362190660791579 
0.04567075095751942 
-0.08669742029706749 
0.2005657858280722 
-0.008022960655173109 
0.1206783546880758 
0.03036035241431445 
0.0970619471262221 
0.06546070679350646 
0.2283271704433284 
-0.05231617382337812 
0.1892013693896134 
0.220712956470494 
0.2966740875993786 
-0.4438889236023979 
0.08834997873215779 
0.1103449156567565 
0.1941499459756252 
-0.1483756986734753 
0.05282604795256741 
0.6998723582980109 
-0.156003367878999 
0.0331655015241353 
-0.03628393937271851 
-0.003753844602797028 
-0.003929595245644111 
-0.2162472649344162 
0.1588082391465906 
-0.2265341959450079 
-0.07457963598322953 
0.1026063138063898 
-0.0707855680662499 
-0.0401582906200393 
0.137760430647074 
-0.02913479950220801 
-0.04499709083425386 
-0.05883696787266293 
-0.0272036653836938 
-0.1105484713582892 
0.01619892787238744 
-0.01545221905256669 
0.07404451552757153 
0.2321161653003554 
-0.04848497377441086 
-0.08918829099682676 
-0.4366595068716885 
-0.06063386465089858 
0.2789952830830788 
0.2609837578712528 
-0.07276046108671916 
0.02801365143050262 
-0.005351596055165029 
0.2860990889809656 
-0.04053608678532562 
0.03925827775150625 
-0.09893033747775372 
-0.05317637326134047 
-0.03165848289973139 
0.5121904113767634 
-0.05011588087035005 
-0.0267157264529523 
0.09658076652493797 
0.2423531989247953 
0.1537432890248501 
0.1205968893329471 
0.1815872809027529 
0.1025777931311262 
0.01671750413669589 
0.2717897253467652 
-0.04924652330410618 
0.3638762146972351 
0.005961341539061993 
0.04704097209304668 
0.01051566017098951 
0.05910802288877017 
-0.003397517369044676 
0.000973815612600972 
-0.06073422587510352 
-0.07011965945932457 
-0.2210900083336612 
0.1411056691922314 
0.0790969405135597 
-0.04224089580809763 
-0.1597601541817515 
0.07615326151465965 
-0.2253997140798098 
0.02583720355242019 
0.06173954429756094 
0.007784432854580009 
-0.0280754158764708 
0.204250537473885 
-0.2626720385507991 
-0.01761916701218314 
0.2644319943825176 
0.06147966255327264 
-0.00292618415894442 
0.1310291820280036 
0.1494344525077741 
-0.01016681375506933 
-0.01821451861918523 
-0.06207136002359396 
0.01614017808064131 
-0.05860261514192355 
0.1360430661872271 
0.01044758100236505 
0.05218780260716809 
0.1642617059656543 
0.09329652571617868 
0.03742643785716671 
0.2448098393206206 
-0.005845302702458506 
0.08652520477494545 
0.02945813327022584 
0.009652622450109815 
-0.2663713557685349 
-0.01857594950275498 
-0.1243983260233919 
-0.02974813774872396 
0.1031916527664579 
0.02769735333625618 
0.3909062139503973 
0.05679046253510036 
-0.08607215058815026 
0.002110244335790304 
0.0664259152590581 
-0.4856380146951947 
-0.1552192919751788 
0.1710758886601517 
0.3710740427943372 
0.06659370793408843 
0.00805133108488452 
0.7013505350095898 
0.1364377699982369 
0.04709761220323445 
-0.05320395617480928 
-0.0792391372609733 
-0.1193115770977659 
-0.07956544531876247 
-0.1746579522455576 
1.362522413129368 
-0.004345160255352366 
-0.1188334396611854 
0.174596768368019 
0.05866871325112992 
-0.2948828003609514 
0.05266891371981862 
0.062608734016387 
0.25792397025445 
0.7583016715516547 
-0.00948356379230008 
0.03369826779609889 
-0.08561984840101085 
-0.4830595081303187 
-0.04932745238045502 
-0.04407281244514191 
0.04873528145926272 
0.05873379642564266 
-0.1211160876332951 
0.2454476557573521 
0.1613636822690978 
-0.05986944696924622 
0.1531046450945767 
0.1753660328144253 
-0.01119662413151955 
0.381339970025181 
-0.07376650389958941 
0.1332457569385218 
-0.2007912588160123 
-0.0107661841559968 
-0.04446527212125308 
0.1020904923591925 
-0.02580918435980653 
-0.02985231587081016 
0.08257135440543957 
-0.1224564254726139 
-0.0881030637561608 
-0.03512929004860466 
-0.0199522121476423 
-0.009041912347416426 
-0.4268073966034658 
0.299777008328362 
-0.1859148220175268 
-0.2235312868059009 
-0.2070774355258892 
0.2016219298410545 
0.181552296916071 
-0.04263237845693893 
0.07291238889565084 
-0.04803742579211168 
0.01212260024390673 
0.2842405174223913 
0.08423763509954874 
0.01310214477916117 
0.09456342551497957 
-0.1056936102668576 
-0.0368608148297977 
0.05930768739298281 
0.2852683605709999 
0.02747281669101514 
-0.0002169775181529408 
-0.03987698735390978 
0.07077610723855809 
0.1579598930136798 
-0.03368685865577908 
-0.02254963899263818 
0.04878061158091015 
0.2659615224334638 
-0.07177501176221678 
0.1507149400446604 
0.4781821392301917 
0.0859931195593639 
-0.0657556013066946 
0.1375067795190439 
0.2853978537172603 
-0.0119278662190736 
0.03162791542002 
-0.1823547859490655 
0.2656570374029291 
-0.1158275059929323 
-0.1277860412494261 
0.4179575910590519 
-0.1316274664771238 
-0.01323473381291509 
-0.05084299264292245 
0.2390041723586809 
-0.004198299678738417 
-0.1388400924283824 
0.09042127907594906 
0.8114386000790769 
-0.008375172048846411 
-0.02925258638525007 
0.1207115442156342 
-0.05511141250761747 
0.1616278699057306 
-0.01018866883832994 
-0.04174483999782109 
0.001910143776544323 
-0.05337211207561465 
-0.109732602067584 
0.1837730566446552 
0.02661069440059606 
0.1436440648217893 
0.212216360547377 
0.006165092235517448 
-0.1204321299684128 
-0.02863505979114697 
-0.1355940561322219 
0.1888980976352447 
0.002313037231519198 
0.2485768529418301 
0.02707844306845433 
-0.0152085594977119 
-0.0586188836849965 
-0.03536156646628035 
0.0247919043312191 
0.05980384889634763 
0.1608229716762867 
-0.01625906356998241 
0.2477157378870894 
0.01478247485789644 
-0.02178383252230051 
0.117861233865327 
0.05893298450515585 
0.005089830653814135 
0.1968417402332555 
0.1956720080072014 
0.1751288066990309 
0.1376398887794444 
0.2164547996825079 
-0.009856943523904142 
0.3448980865072232 
0.001252291215098229 
0.06471501786023576 
0.09163724505378737 
0.1852357766516698 
0.3952240433246034 
0.05634126252224467 
-0.02227403297435324 
-0.05760174242474339 
-0.2283415756316268 
0.3573229181044055 
0.01773292314531742 
-0.05378494998141209 
0.04696561551620311 
0.1823004985451357 
-0.1422953782552495 
0.07744857462439 
-0.008655276221041277 
0.0662167831052036 
-0.0334696478457226 
0.3251796743796132 
0.07912864492738034 
0.05666073371547427 
0.04731345251550245 
-0.0192246087852557 
0.009591196979798189 
0.05408418683250617 
0.1817759156236249 
-0.004919809589304366 
-0.009105749622497798 
-0.02511062627873139 
-0.1192278655387393 
0.2807622198187273 
0.1762274618934368 
0.03676054604824171 
0.0348321572594042 
-0.0193719906171099 
0.1876021278371201 
0.08388668164537981 
0.2273852610512685 
0.05834879831092715 
0.2863015585024294 
-0.07725243180294429 
0.1554416445530151 
-0.2706311574530701 
0.08233230182180561 
-0.0632149534701343 
0.2347219636948156 
0.2570854055365421 
-0.01284085550046156 
0.3219233197361181 
0.2565584606153595 
-0.154917160987961 
-0.05829346524944132 
0.07433904824061832 
0.03604847620552769 
0.03518631213147061 
0.246997938584718 
0.03474354666059598 
-0.1828110213006821 
-0.009584468731328339 
-0.06843747059405954 
0.005561011106829646 
0.1627856818297943 
-0.03124517697957092 
-0.04320485488461177 
-0.06876659141044887 
-0.02590731366264994 
-0.1511541060971671 
-0.0310764826458404 
-0.009103627003956451 
0.06236040336417731 
0.2827214102687715 
-0.03415064600206272 
-0.1074565525366631 
-0.3804040697684898 
-0.1333714021554412 
0.3012140213026704 
0.1980013650746532 
-0.1062476489195464 
0.01745807811076746 
0.01190095719084369 
0.3059736148276524 
-0.04544042616068383 
0.0172612047082795 
-0.073232041416487 
-0.1372200185240095 
-0.04654071351868979 
0.3910735287880151 
-0.07011726807315009 
-0.03006473013565546 
0.1260907796812656 
0.2279939288863314 
0.136192278298845 
0.06542852678522637 
0.1897031727444693 
0.09015901373434786 
0.02691593579038308 
0.3078813937096664 
-0.05198957873384606 
0.3887230403111717 
0.003867458375278682 
0.03379565598508388 
0.007458182605406061 
0.06161557491790119 
0.009712939274203278 
-0.008187121606141403 
-0.05641365978406337 
-0.05827009812655033 
-0.1808247268158613 
0.1497884499351396 
0.05595284184388827 
-0.05411723160635769 
-0.1389976825317636 
0.07726677775512027 
-0.2307200526101896 
0.01022823105092436 
0.06582657718518632 
0.01430958953539893 
-0.03076880669133596 
0.2093686204421166 
-0.2625277647474269 
-0.01276456026664549 
0.278596922209038 
0.0827462398905708 
-0.01286089291651899 
0.1372497491737021 
0.1983323636919 
-0.01161119878397814 
-0.01418289135547169 
-0.06729182227043591 
-0.002165663924862405 
-0.006885375529912004 
0.1411594431817713 
0.00102664741115045 
0.05081523797724278 
0.2029246973715642 
0.09346632354662156 
0.05921864882802146 
0.2667841417126839 
0.01918863799619986 
0.1108417945284795 
0.05704983900421734 
0.01718300468538066 
-0.2569706144342854 
-0.03215071068827776 
-0.1493031642135974 
-0.03131470927962962 
0.1054730101391352 
0.0187069442413591 
0.3603326125153142 
0.00433019882001866 
-0.07945570349161256 
-0.01617657604161676 
0.05394090973220451 
-0.5214098482839794 
-0.1942958483660237 
0.1425473809895077 
0.3132985158157329 
0.09826345782520281 
0.02705463177748412 
0.02107052592429704 
0.6307561577648857 
0.1314266446533438 
0.0539854789260989 
-0.04473145251683074 
0.05990888784657651 
0.03409502193749506 
-0.1330672625870366 
0.2427810321190126 
-0.02691048060561293 
0.005624058132500566 
0.08830237807298252 
0.01821319256096124 
-0.2067934192540294 
-0.2279466604691028 
-0.2222132621947536 
0.3251298686227019 
0.1767546940019937 
0.2831031828087368 
-0.02501782328775569 
-0.03939443066236435 
0.0768882066070577 
-0.06445557949545326 
-0.05476864425692931 
-0.07928614929500473 
0.1275122909295573 
-0.08701208567773713 
0.1285721343253813 
0.2287818166086517 
-0.06590127683655955 
-0.06778255799209502 
0.08860228473529451 
-0.01684694453910818 
0.092123880801081 
0.1945120301262021 
0.02788729235863581 
-0.09735015606338865 
0.09964354114083766 
0.01166119141273638 
0.3182689215891081 
-0.001949693371108469 
0.01584626144075154 
-0.06999089594415499 
0.1776500007677053 
-0.129955776462512 
0.02525921294250022 
0.005254848928582218 
-0.03792097887408605 
-0.1616687157614178 
-0.1391768452476506 
0.1704914604114365 
-0.1171788838738739 
-0.2345382558209433 
-0.06273761239690191 
-0.09038609138456388 
-0.07176306504148039 
0.01346380323658763 
-0.04460935769251213 
0.024163207156038 
0.2375151196145743 
-0.2336009109491322 
0.2307621752193439 
0.1563090360672993 
0.04264229350759979 
0.001259700824018047 
0.1515787687607303 
0.1723725836101384 
-0.07464329143925894 
0.01747599274627295 
-0.02926537387876385 
-0.2111500720506328 
0.1367086130782921 
0.04007738218323524 
-0.006913329533806504 
-0.0246913728673825 
0.2239005072718238 
0.03626867605228367 
0.06829696612431538 
0.179723196917129 
-0.3870752406052033 
0.07979362733275813 
0.1689745860545584 
0.1124423458523434 
-0.2873103214200142 
0.05034406763341914 
-0.0802461101194442 
0.03117050320679554 
0.01084676737312123 
-0.1263306526110927 
0.4638306726621412 
0.2303354174357461 
-0.04937261436346873 
-0.01135927162043924 
0.1121405886601381 
-0.3251310041525999 
0.06387807792338841 
0.2181888954775503 
0.4504226856931468 
-0.1911331282150628 
0.0258599125635412 
0.1599202079799001 
-0.008142823487752396 
0.1353607659620051 
-0.00521740452107898 
-0.03334901321346671 
-0.007838315313995764 
-0.06668788612351631 
-0.1696240515088201 
0.06184782222942976 
0.02929810801284883 
0.1010462454936747 
0.2431321848467812 
0.0346529190411972 
-0.1140729751205513 
-0.03852419044905214 
-0.1316542902252958 
0.1161602267043233 
0.0197286151826619 
0.2153040601290623 
8.141517677398306e-05 
-0.02476678034390028 
-0.1125472181571962 
-0.02527628046994087 
0.04205135036705457 
0.06514558519552138 
0.05500197935566022 
-0.01781642396408205 
0.2308644472713739 
0.03352297648184931 
-0.0278878922379097 
0.1150992230796514 
0.07880268222602789 
0.03268144296301787 
0.1415614372065843 
0.1618240352518837 
0.1417813931393619 
0.1555953658933705 
0.2527791619398718 
-0.01020915821605247 
0.402677499588848 
-0.006877152685362278 
0.07423868631482819 
0.09129643107025576 
0.1788270368743745 
0.387799954063159 
0.05436514097158128 
-0.03143469005559512 
-0.05262383278307595 
-0.1807946880540953 
0.3643694485478944 
-0.007972991574142017 
-0.06167110945974693 
0.02026233934967958 
0.1709461937786819 
-0.1181212806876956 
0.05869788648957452 
-0.01886291594598819 
0.07358835077033352 
-0.02443025923499136 
0.3252803345864215 
0.02512151670920994 
0.07554210595598604 
0.04203684116295404 
-0.0449251486703305 
0.007319633723319358 
0.05201252120910659 
0.1542046362291656 
-0.00222929860601848 
-0.01163400244279676 
-0.04377406442126831 
-0.1200366723160495 
0.2676792083788317 
0.1485303232839055 
0.04427589178771033 
0.02315947163098559 
-8.916531114147661e-05 
0.2014798867914865 
0.08667318789227198 
0.2422645939640282 
0.008331453251160774 
0.2843647110933826 
-0.1061619578013613 
0.1655218664058138 
-0.2137609006947633 
0.07382842623152434 
-0.07879677509418365 
0.1714173737390702 
0.2600141107622264 
-0.03944652169688494 
0.3760006546067452 
0.2155176213510254 
-0.1589279130798918 
-0.09334295743758554 
0.1027785619768538 
-0.0228418948611659 
0.0008554920100996277 
0.2201552120631659 
0.03679320555735606 
-0.1734993056616664 
-0.01908777159813264 
0.1438321156035217 
0.1916143957680754 
0.132553090320278 
-0.02640283690851907 
-0.04228550828948836 
0.001172692477007143 
-0.004627547255876739 
0.1164461499641012 
0.2648810239709218 
-0.01836206882108248 
0.03735055909441596 
0.02856731537786253 
-0.1137065799182195 
0.06956501109754092 
-0.07849650318889281 
-0.2433846861493541 
-0.003412938881567202 
0.2262185327552092 
0.002518257076738181 
-0.00665031132857509 
0.01558779806602987 
-0.03558985312411841 
-0.04015491138786599 
0.01348782365134832 
0.07834516347857562 
0.3661835666856738 
-0.07652351975752429 
0.09921196581361613 
0.3542946583654569 
-0.06653213166080067 
-0.01652045975304047 
0.09163701155071258 
0.08938257593656002 
0.1587608759524341 
0.2442709955095555 
-0.09648693591030544 
0.009700015694710292 
0.07226908408803928 
-0.04378213154642899 
0.1446764040592733 
-0.02270971341798747 
0.002425684764414756 
0.008435117096726773 
0.09315551640516166 
-0.04956296837667127 
-0.02740255766061383 
0.09400897558169237 
-0.01807183320946162 
-0.01476630940356029 
0.0708016336257023 
0.220922718337545 
-0.1004122585564989 
0.005356476179179545 
0.1062458029230045 
-0.1918361971111548 
-0.04010859665199085 
0.01805465639505151 
0.04199913229547381 
0.03005918082165013 
0.2095771941096381 
0.0464548898362359 
0.2166754959806036 
0.1320523160854153 
-0.03632341298595439 
0.008811456947806056 
-0.1404149731580596 
0.1546062196308131 
-0.05676113886764055 
-0.02712980123817071 
0.1396642382488622 
-0.04872267632765929 
-0.07970445341526038 
0.1371568730012813 
0.01922583092580517 
0.07769209235369567 
-0.008172386162027813 
0.1638676046276841 
0.1119723846113613 
0.02215860931742572 
0.1044698141897236 
0.08536919609552886 
-0.04104520393978097 
0.112434925102788 
0.1163847377962467 
0.0264996771714867 
0.03315494651520872 
0.004146496534729915 
0.22230650417367 
-0.01649815608608565 
0.7234339807137764 
0.06087370381385732 
0.05557263821654389 
0.01026047534268163 
0.2010850486285782 
0.00413894856335253 
0.1098779939306743 
0.1419598621766771 
-0.03859624405423295 
-0.06020187429121578 
0.130661647510679 
0.1010814454605148 
0.3884470348072795 
0.1552701928364698 
0.06251886953613532 
-0.03812582094048039 
0.07061854807600722 
0.03911444784731531 
-0.1683238113617158 
0.2263969608189585 
-0.02753644146303274 
0.01498564707529155 
0.09083810595862236 
0.02555601154168997 
-0.1805215515319281 
-0.2342663660663556 
-0.2831176731110481 
0.3433716592326947 
0.1062000760738667 
0.2775962461419234 
-0.01991224156300632 
-0.03170840110256826 
0.09583951313554144 
-0.06201898439784844 
-0.1040265963091287 
-0.06086269896883305 
-0.05596942517497371 
-0.08154618263167011 
0.09797488194176039 
0.2877482626664539 
-0.07244698004279183 
-0.04141829019762674 
0.08604655929517116 
-0.04515879826349901 
0.06077176847055736 
0.192154059690069 
0.007044318972480918 
-0.08480048371876045 
0.1094544794482107 
0.01656320568982443 
0.2860790178829959 
0.007569867422435058 
0.01594501757149354 
-0.0522686090036092 
0.1787943373832344 
-0.07354301622543948 
0.03766977241471803 
0.01192452698780791 
-0.02423819478837293 
-0.2085082831616266 
-0.1398637368638084 
0.1619069046318434 
-0.1076397419580189 
-0.2307715429750065 
-0.05865517319914745 
-0.07648576905356326 
-0.06030894962619669 
0.02175477014486223 
-0.04324191486968105 
0.02600985091022466 
0.1158320107850641 
-0.2840098831762299 
0.2589984688383657 
0.1842590287190197 
0.0654168221942399 
-1.127686092753265e-05 
0.1680401095562415 
0.1893460734422155 
-0.06546978077184826 
0.03267299479009505 
-0.04010832423815594 
-0.2178691016033008 
0.1468863775188636 
0.03561943538505937 
0.004785525716674608 
-0.02552322734449563 
0.2449453873642135 
0.04941884804967932 
0.08287832647402545 
0.203948492900153 
-0.376343833187515 
0.1131950381291302 
0.2308893719161849 
0.09267326897637819 
-0.2964831512592485 
0.04564032388867135 
-0.09244413992120035 
0.0329182594288952 
0.02799918215283492 
-0.155352679926325 
0.2458606198402856 
0.1058607071121461 
-0.04947526083191168 
0.001398163049364627 
0.1268980510355751 
-0.3854286373683486 
0.009641919311003113 
0.2443284696774377 
0.4715758452784081 
-0.1790022282996301 
0.04357419909644406 
0.03710149385469455 
0.2504925425370018 
0.1046673161281742 
-0.02882830365939982 
0.022759747957525 
-0.1692860830627065 
-0.02429960894489981 
-0.06919335462433461 
-0.1514341766510566 
0.007688260898000282 
0.02853655908538319 
0.2116000040971012 
-0.01342199623950143 
-0.1427698813285657 
-0.4016755166826975 
-0.3328632904882281 
0.2698856718503183 
0.3787649784720187 
0.1113881617708347 
-0.01408116708716328 
-0.07944915780888799 
0.01766593112276667 
-0.06899059532343869 
-0.07998554495632888 
-0.009772589830282719 
0.4370265903818615 
-0.04477739231981048 
0.7418475286892928 
0.08150114078064971 
-0.02328033532427808 
0.01637354318586374 
0.03088757860520346 
0.1649455964978853 
0.03374009965098069 
0.337921831970117 
-0.1846933445930317 
-0.02751913757779427 
0.04308197282071095 
-0.02056798433993532 
0.4770551038087998 
-0.01086365575309636 
-0.01392398907247427 
-0.1403566163563355 
-0.07825358515339513 
-0.1199574271771856 
0.03049350999987697 
-0.05439490722085942 
-0.03540064157302108 
-0.3511347990710745 
-0.1576380409564572 
-0.03339836682586156 
-0.1107554359348573 
-0.1479390436625076 
-0.0662630574492919 
0.05764480915320899 
-0.06199755519540216 
-0.02865713004091799 
0.004904696878098501 
-0.06762886178612258 
0.2277781581335362 
0.2428653856633239 
0.1447035667665369 
-0.1152609260054736 
0.003332184334368692 
0.02666363351108138 
-0.1370931605883945 
0.1054200439545723 
-0.1370342711128739 
0.002318375652966646 
0.08969484269469524 
-0.1895520802576219 
-0.1289697509298363 
0.1115029596725224 
0.01984987741865686 
0.04568560634937436 
0.1543597329230993 
0.08454455833484592 
0.09352017892743068 
-0.04027905641200847 
-0.03520866427279288 
0.2798261532843334 
-0.09798976367929495 
0.1098051066273164 
-0.1412224852473559 
-0.0545021302184755 
-0.202343857643759 
-0.107846570122169 
0.2394759700590582 
-0.04732951460166542 
0.6160489565135914 
-0.1907545566516914 
-0.00699253536591213 
-0.01948445458003194 
-0.05216391745150683 
-0.2089279178431054 
-0.04557726346366922 
0.1612725471016164 
0.3001525645037976 
-0.06727511799905812 
0.05954674299690661 
0.178770037485109 
-0.001202591897074151 
0.1262949886947387 
-0.02325726596093014 
-0.04332500457437537 
-0.02878057360529617 
0.01234506991568184 
0.06973196270090321 
0.2678300721426364 
-0.01855725265123419 
0.02261635486350057 
0.08030488555551976 
-0.08564802960228692 
0.08902536401355418 
-0.0905324294409154 
-0.1896462122687992 
-0.008340025497947256 
0.1820677880309194 
0.006782974652659847 
-0.01208027929120859 
0.02429823549171154 
-0.03107674407666427 
-0.02149997191669795 
0.03261588893396466 
0.1385665725171249 
0.3364505394715039 
-0.06036395604056392 
0.04823947649260554 
0.3207524331082177 
-0.06028430184338018 
-0.03384206301216863 
0.1355992732440505 
0.1003286813992946 
0.1083499044640753 
0.26318740678352 
-0.105299957195114 
0.004949405398579279 
0.06797137156627511 
-0.03077768581223751 
0.1287533680572659 
-0.00378433795998899 
0.02732726909389586 
0.02256808854783926 
0.09105574866000307 
0.02269710610995299 
-0.02761311429410167 
0.08669081635222056 
-0.01153059819822423 
0.004386708352502716 
0.1108419308541712 
0.2483133262307597 
-0.07261077607649474 
0.002620645441142811 
0.09945276508831248 
-0.1665643252693365 
-0.04717945719955909 
0.01662591367511327 
0.05384853534205249 
0.0365293287924905 
0.1462289300067677 
-0.01761029080470916 
0.2205282342535499 
0.09114012429834785 
-0.01461516598269931 
0.005441297812602746 
-0.1248333417537046 
0.1982355563960637 
-0.03699856335704311 
-0.01745612624702073 
0.1479716776401097 
-0.03325300052267541 
-0.07824816086752907 
0.1360852509929463 
0.03524682998400674 
0.07759093085453302 
-0.001111806228810525 
0.1647330729485033 
0.1029178799385961 
0.002031161502436469 
0.1291996879978085 
0.09560195667868872 
-0.01354418644609723 
0.109172942739858 
0.09097567828982125 
0.0302008196323727 
0.06337295352784575 
-0.02041886620979924 
0.2225174911704341 
-0.0147034741257432 
0.5048044999433876 
0.03574746792051545 
0.05231913451715459 
0.01612689303992182 
0.2381868925475814 
-0.04651000643212454 
0.1496277055691564 
0.1070747561243963 
-0.05294839427153823 
-0.0540946065896525 
0.14017530616774 
0.100222659278081 
0.4748452063866644 
0.1049616068665298 
0.01896423234228708 
-0.1623199395516584 
-0.1016343460086483 
-0.09222473048818086 
-0.01702296096425922 
0.02398747741110702 
-0.02906407434451348 
0.07358538498828061 
-0.002916665390001996 
-0.04763125673745074 
-0.1966322516441526 
0.05066887050851378 
-0.05541714305439803 
0.2954942181651476 
0.180593908069975 
0.07584521716816243 
0.006783737559283045 
0.0610837230354795 
-0.1452494462479297 
-0.08013035055574828 
-0.1218712009726878 
0.03168749694870138 
0.1665814255495983 
-0.08667152233922611 
0.2644785610749933 
0.3379090253453202 
-0.01605882677259039 
-0.07084289724652609 
0.2339433745563014 
0.2447337704263755 
-0.07951318773850001 
0.2435153656623754 
-0.1068291910345702 
0.1094365166206512 
0.06997074402934327 
-0.04037386614980114 
0.2385670666166536 
-0.0111823120940639 
-0.05372717582599805 
-0.0175354664234462 
0.05147983177578869 
0.1442193322498586 
-0.04654392836405475 
-0.07401624141505789 
-0.05050002771081485 
0.05922216245843122 
0.2213966497281223 
0.1291092680514223 
-0.09796491049484883 
-0.1631398960271929 
0.04794450650220256 
0.1101227139782033 
-0.04522096842475185 
0.01911592075028356 
-0.06816464003085144 
-0.05131802651568972 
0.3844265553143792 
0.1989517350919166 
0.01039506590272379 
0.03767016324075317 
-0.009528017299486297 
-0.01154930658939373 
0.03054098407102801 
-0.01625633818111251 
-0.05821768665655992 
-0.002304498298174068 
0.1384823487968411 
0.1406251564608559 
-0.08535802794132732 
0.1848762347520059 
-0.03410384919170201 
0.03803148139004139 
0.03996481677684574 
-0.06794085336673772 
0.218254142212372 
0.03607265555673888 
0.4992875721000785 
0.1577371689301598 
-0.1318644125112933 
0.2218182337161986 
0.1890968814996362 
0.0334395654594755 
-0.0483512105341769 
0.1446919219284775 
0.1114704752505701 
0.02548501339284099 
0.6415620130221618 
-0.1083813449413448 
-0.08608935943058249 
-0.01207232068898289 
0.2079204070953398 
0.09000110895644474 
-0.04147431741773541 
-0.1435896881927423 
0.428939620933846 
-0.2070062685551181 
0.1046090272096014 
0.1723939409148072 
0.3540890713749009 
-0.04059474865365519 
-0.06491868171369813 
-0.03883462393165787 
0.04009618642220969 
-0.05579739216451318 
0.02853245534877969 
0.2676972942509996 
-0.01780561625939987 
-0.03357096294756876 
-0.01305470495417581 
0.01456816361583669 
-0.1471901490122686 
-0.02576523178428832 
-0.2347776094886132 
0.02989490138531492 
0.1424122973087785 
0.1078813380255882 
0.003826062394787696 
0.07800636992747831 
0.05938609695708911 
0.009012555283462797 
-0.1397431020453798 
0.1076324487717147 
0.3697844711097206 
-0.08238342595219911 
0.1492521829833942 
-0.2162109330035587 
-0.05059187181298719 
0.09933637097414538 
0.09182401698019063 
0.06718430675468641 
0.07055498100240762 
0.1363184845224005 
0.05410609192478604 
-0.09896483090343079 
0.07342317609832713 
-0.06758543778835853 
0.1630702893047854 
-0.06703125768514083 
0.02551935992828332 
-0.03829232629166521 
0.1388190734720759 
-0.08417082700232502 
0.07283474739761553 
-0.0558546032930806 
-0.07630569538221731 
-0.09479438699294525 
0.008578505692533539 
0.06614617985579131 
0.02521436770993737 
-0.08039346853123883 
0.05914279844028303 
-0.1023363148067788 
-0.1278906322935359 
0.04213062799614794 
-0.01871510677543053 
0.01163306126962411 
0.1361473365595703 
-0.03667991069497971 
0.115005216189771 
0.05860979343270923 
-0.02345654856723011 
-0.04195762781747107 
-0.1370769335209267 
-0.08182882165188217 
0.08324726033624831 
-0.02423371346637539 
0.07008665268767669 
-0.002955746488176588 
-0.005040406038210042 
-0.03138855558978156 
2.571670759092797e-05 
-0.01996287338339387 
0.1444081456018508 
0.0539779543772172 
-0.002585978923683861 
0.3809461181544685 
0.02012260970851523 
0.03695152961676958 
0.217978561005489 
0.1346548522895789 
-0.3277810001739329 
-0.05522612182579751 
0.08217592854845007 
0.1106505306626485 
0.05053850126579296 
-0.08679765948411378 
0.4227897733888022 
0.130884197111969 
-0.2305421660606697 
-0.04048445529667281 
0.02811061373763906 
-0.1510188767233259 
0.2921192174326221 
0.2293446136194445 
0.540112293502261 
-0.1505282273764064 
-0.004899308311950272 
-0.2031089843501108 
0.1026153704568222 
0.1576533223395929 
-0.05879087224584306 
-0.03073945441815657 
-0.06184865055200179 
-0.04472853863820622 
0.115758594919089 
0.118794497573873 
0.000932787116246506 
0.1872973473490211 
0.116803783785839 
-0.01937665901006679 
-0.1637410028907441 
0.07916689524949592 
-0.04412844835578275 
0.1135913999473409 
0.2260301901787896 
0.02016897672336452 
0.02867690369275958 
0.007014317158225957 
0.207365152864067 
-0.05719658709427266 
-0.1384715426983833 
0.1714417274496025 
0.1922504659052579 
-0.01170462194278666 
0.05953530756134778 
0.06311349447448195 
-0.008226926112243666 
0.006671910720214134 
-0.06730893885493298 
0.10755482097669 
0.3291551728096277 
0.2504372091812792 
-0.07741161520750192 
0.005797155534410727 
0.001560452135298824 
-0.07284644091287368 
0.1041726356071175 
-0.07781668942241032 
0.02538146952034818 
-0.02982272999927997 
0.007599679370588489 
-0.05552682292308272 
0.0141298962976675 
-0.009132655930411893 
-0.007569394686352441 
-0.197022881723367 
0.2369442101668196 
0.09507142499044974 
-0.003868817944149628 
-0.1302465349936839 
0.02146501192589382 
0.004377197225161398 
-0.01691424363557223 
-0.07002947441945943 
0.02554498800216648 
-0.05176469102671065 
0.4311050924790618 
-0.002529817686524088 
0.09300300099430849 
0.02796619757395094 
0.04567754636222494 
-0.004468356724639089 
0.07206771896366135 
0.2718637814871188 
-0.0618481750753761 
-0.02560753525101751 
0.1202055029908355 
0.1365013829056879 
-0.2239918387776517 
0.05321737354563445 
0.06750380473504142 
0.007665612009013718 
0.138022651129997 
0.2155792323136685 
0.05275500176141904 
0.1446440829280816 
0.2449098770684971 
-0.02162148707125412 
-0.001682853949723544 
0.1675624039818517 
-0.1543571204037614 
-0.004068945409412487 
-0.01835107953062699 
0.04432642672269234 
0.1560210026211123 
0.03836201590331406 
-0.05336287163067138 
-0.1205524485374841 
-0.1016177895612913 
0.01008109227878675 
0.01955430980565898 
-0.3690650129312707 
0.07790821367695593 
0.02962493160938427 
-0.1967583394558993 
-0.06225694140552457 
0.001596877104801846 
0.4129112465857117 
0.4645577784465341 
-0.002075769076507548 
-0.07945734613638117 
-0.1370272286715728 
0.1894550172134753 
-0.003584581464907471 
0.08788887316198676 
0.2342139711078236 
-0.03129300747124773 
-0.08123322275199381 
0.0142221156025767 
-0.05254005159355662 
-0.1520246171664973 
0.2051547502975805 
-0.04318092305788334 
0.04350706491600966 
-0.03623589160653528 
0.0175858954584261 
0.04864131537372349 
0.06747258119580558 
0.2789989558760769 
-0.0517662113822975 
-0.04685565920453105 
0.008295096529151854 
0.4097948445094919 
-0.0460492353752599 
0.2066735752257987 
0.03740332108852627 
-0.02174237889820403 
0.04860597664781646 
0.2715848053767142 
0.1718964585338787 
0.1932021740366793 
0.1537689754110896 
0.02968694686086713 
-0.1088958665868398 
0.1319970304932335 
-0.004268413873345011 
-0.06945432273642359 
0.001686462321838909 
0.006996882564418338 
0.1107696899538414 
0.09638041404307669 
0.1914201510634257 
0.01245460201948516 
-0.02904265383072123 
-0.007874288570494669 
0.2831173850984539 
0.3188515054165992 
0.006347787833822105 
-0.07993790831673082 
-0.141414056855839 
0.03189330962821113 
-0.1477038014043673 
0.05720217365143748 
-0.06716477387831724 
-0.01431733396616838 
-0.006175364612850119 
0.1552436970859465 
0.3125421993694933 
0.07072949965034325 
0.02385991070931859 
-0.04831552437589146 
-0.01835926302702277 
-0.04440720814879449 
-0.1052717771517856 
-0.125454220154373 
-0.001701157440081964 
0.09215809106649732 
0.1071788561992452 
0.1056650677446383 
0.2483484560908922 
-0.1208833818928899 
-0.03312312951492294 
0.0878290496257589 
0.09736766575447138 
0.0110053451901919 
0.1618039318325162 
0.2345354705523902 
0.2029947459166061 
0.02084821723750137 
-0.1463871102197729 
-0.008192868171264729 
0.04143382258506196 
0.001302280381107425 
0.080856262896929 
-0.001424019924406373 
-0.05406400239772777 
0.3629730538503494 
0.3144396891474291 
-0.1486686088392735 
-0.004268040729396717 
-0.1583707684176646 
0.2672290330434768 
0.266899725306159 
0.08172714685209376 
0.2729287094788663 
-0.1809865580668678 
-0.04923837178585583 
0.2575842862427542 
0.1862208318886757 
0.04534285035605599 
-0.0359343344516501 
-0.09621650143342123 
0.0413136464404168 
-0.06438760054937297 
0.08509293918131997 
0.2717234934462455 
-0.03867166981743615 
-0.05235686142388848 
0.1272127701577715 
0.03838130285631497 
-0.2561774444914883 
0.1645243387130045 
0.1483584150292949 
0.155238736072917 
-0.04782539930801796 
-0.129032481361266 
0.06348232388138678 
0.0611839369155793 
0.1556113958294369 
-0.02217964215883029 
0.04647967992214059 
-0.08494322458686786 
0.03627246111815929 
-0.04958497602986622 
0.1288304663480686 
-0.08100588696524894 
-0.009611351832595198 
-0.008936174036545721 
0.03672554642356875 
0.100837981771431 
0.2373311744650613 
0.1951918883317637 
0.01197333983750769 
-0.06456551270019266 
0.07897370668051858 
-0.04624266840436646 
0.1103440205488071 
0.0009232298271089838 
-0.0001975462602255895 
0.07892744850156207 
0.03032952783462441 
0.1710720362619742 
0.03097712265008622 
-0.02889535869458965 
-0.04255031232102637 
-0.1208402191942298 
0.1723621500025023 
0.09694602321393997 
-0.1438246233299346 
-0.0640413386861739 
0.04093576033279814 
0.09759119493909486 
-0.01843385641379825 
0.01084752987442691 
-0.00943980995789597 
-0.03786227467563697 
0.1818439466563855 
0.2447580666208755 
0.08667180504494792 
-0.001637684647233392 
-0.04335705105402253 
-0.01722951033511565 
0.09389236098666172 
-0.02380498054399185 
-0.04300150501742608 
0.01780857018547164 
0.1148280476901032 
-0.05815789702619129 
0.04131759369050125 
-0.102041506470144 
-0.04433944043079419 
-0.04044812835424292 
-0.1296901636811595 
0.152829918544042 
-0.01799233856864829 
0.2622193777168492 
-0.1064289308762333 
0.01443934260604415 
0.122823577553455 
0.0790283276693079 
-0.2529295383755949 
0.08609988749248164 
0.1768168617665096 
-0.1048671373969259 
0.04497395815179094 
-0.01511155013618092 
0.1451700286573736 
0.1458216403960477 
-0.03727149507600891 
-0.01789402183777856 
0.1311572101803015 
-0.007379747273596458 
0.1516760362289974 
0.1976755060271774 
-0.1310321266506642 
-0.02409251299474609 
0.03041900658628656 
-0.1663837073869593 
0.2756952642025254 
0.1377558341112573 
-0.06053643078416158 
-0.03770769284776111 
-0.08864731862059556 
-0.04114846958138593 
0.08161518682093108 
0.136751887597757 
0.009131313747091637 
0.1591052441371343 
0.1021938562059817 
-0.03208261287890814 
-0.1702365107133681 
0.09696562896223072 
-0.06140849160214098 
0.1825995590055776 
0.31643657534275 
0.04267252293620889 
0.008750548600930377 
-0.001959047898175384 
0.1833305817660307 
-0.056854590126836 
-0.1588955720793455 
0.1725923985251116 
0.3293762628633756 
-0.03073643953692086 
0.1960925317846182 
0.0755610499790927 
-0.022447160365661 
-0.009424982618721954 
-0.1044572768868879 
0.08553671473356157 
0.2920002957686479 
0.2162664426452501 
-0.08292397906962574 
-0.01009193515074493 
0.02850318860383323 
-0.07421764026117035 
0.1340084019132495 
-0.07696408279203401 
0.02699709060466992 
-0.04205189276150558 
0.01543773156776674 
-0.005550889451518303 
0.01290133745021045 
-0.01001658768684611 
-0.01240869379954246 
-0.2262901839425994 
0.1882677255106742 
0.06406096896069099 
-0.004785727940975962 
-0.13538509066303 
-0.01851306017064443 
0.02011594478096466 
-0.02706501924328985 
-0.07626118914673222 
0.009273454671023746 
-0.06372956881859425 
0.561935454437802 
-0.07120576402082353 
0.0821831701011356 
0.00221297212610984 
0.0495134110943715 
-0.02069628468255155 
0.07190359719986031 
0.2560715002132248 
-0.09718010719515607 
-0.02837729778911985 
0.1327977103520843 
0.1433189805103429 
-0.1808162031385013 
0.02742821779833499 
0.04418211485080152 
0.01147632433185886 
0.1423693710644248 
0.1702789552548534 
0.05693746460859656 
0.1436656568373706 
0.208525964965503 
0.02721293161336705 
-0.00680989206830109 
0.213668643392812 
-0.127167548067305 
-0.01282408944425395 
-0.0508071715401825 
0.02318700926409655 
0.1373752237488958 
0.009811697805126252 
-0.001565849566179805 
-0.1554145563086648 
-0.1255959121399959 
-0.005821458949284174 
0.03102560367036718 
-0.406864781354762 
0.05512360421122135 
0.0518653286219408 
-0.104716766280851 
-0.08679824026732784 
-0.0146846647031136 
-0.2388541173818685 
0.2295758449786094 
0.1242854003156013 
-0.07521283917555688 
-0.02303985133998878 
-0.1637621058326119 
-0.04769699979305445 
0.091300016848852 
-0.01549304403046944 
-0.06338300259311533 
0.1374021269699088 
0.05621805131327459 
0.0468342483008961 
-0.09068760645424483 
-0.08528153504352573 
-0.08096863157693936 
0.2666472111757189 
0.2788787734101985 
-0.008800311034531423 
0.01171252273161527 
0.04037706078766169 
-0.0441153107258456 
-0.02280786184398086 
-0.06778373309638981 
-0.01388797289819117 
0.1167558753591117 
0.005755716825529849 
0.2179759192138426 
-0.09295850511215728 
0.01775320921641546 
0.02972268866393676 
0.2060052168718814 
0.1590106123630074 
0.1590830866452284 
0.2092150065320422 
0.1339841640260065 
0.07468508612308206 
0.06549832657917454 
0.01141632185722341 
0.207441355641508 
-0.02935177885056696 
-0.03398703703641332 
-0.0212619382204038 
-0.04435578975677604 
-0.1022032042415597 
-0.01197043256530628 
-0.0156717660758003 
-0.05399805898229515 
-0.3169222327851486 
-0.214374075786319 
0.1053142876264061 
-0.0184885993021968 
-0.1460137458431005 
0.1988552547364068 
-0.1937112169596188 
0.05507630029947334 
-0.08144049443268817 
0.03534041881733399 
-0.0307725556847106 
0.02457841559851802 
0.03874923796890477 
-0.08617468802932245 
-0.00385895336961272 
0.05674925924271074 
-0.00656029159997221 
-0.1892038404666735 
0.08760668581753288 
-0.08020294859018465 
-0.0254539529407967 
-0.07486394515372768 
0.1794339523298289 
-0.2124546602026608 
0.2145266545942708 
0.0204864684547607 
-0.03298655620610794 
0.02537463727576583 
0.1910523101537311 
0.143117841804723 
0.1493926559119658 
0.3205729573480217 
0.1999834228980898 
0.09782597122458006 
0.06782283516901072 
-0.1330906972446363 
0.02893289073907025 
-0.05140752178053921 
0.1835459990877154 
0.09703323054444556 
-0.04694099501353733 
-0.0410451442985666 
0.06029852756144455 
-0.01151951776677816 
-0.04281598421740376 
-0.07432474528924086 
-0.3181492238563464 
0.2736020529218907 
0.2758270499456427 
-0.06723837289756103 
-0.07331626638865127 
0.1104167064421792 
0.2138101454720805 
0.3477572634818046 
0.0615416298103356 
-0.03096103990401212 
-0.09389419610404939 
0.01435003582205064 
-0.05461455310424551 
0.0658396579726947 
0.2891737401942509 
-0.03247883101848551 
-0.06595214071597867 
0.1078258777001822 
0.05329489002853102 
-0.2387262654783898 
0.2148909772837496 
0.1261737288219092 
0.240357802015938 
-0.08292375037597587 
-0.08316510901765135 
0.07225560310772218 
0.03882409654441051 
0.1759618194501927 
-0.02318732766362666 
0.04602088974166708 
-0.04547975845332938 
0.2511300314359757 
-0.05937720603357401 
0.1810944082656268 
-0.02413523633656666 
-0.02168001623497392 
-0.01162275701920904 
0.0393465372747844 
0.08891937252036976 
0.250498232448082 
0.1940240161594703 
-0.0144826330994707 
-0.0911339397968154 
0.1018699328615383 
-0.04660391521414127 
0.09493953546884844 
-0.01332662736708468 
-0.01915499405996814 
0.07402507847610608 
0.06650710244118517 
0.1827583766109543 
0.02176924724194094 
-0.02464011088869066 
-0.04736777783776266 
-0.1317572434275819 
0.2102482500350013 
0.09314029770429527 
-0.1214333377969478 
-0.0789810899876912 
0.04760557057882408 
0.1129110165821115 
-0.008449399880821841 
0.01494140536795459 
-0.01836500683435045 
-0.02855956291215236 
0.3133294323632433 
0.2452919108806763 
0.07135431159308665 
-0.03732793014465251 
-0.01531570803456112 
-0.02879373064052678 
0.1188520850904999 
-0.01879646270754263 
-0.02718353006709038 
0.01475398705156772 
0.1124107001651693 
-0.0008348329280097702 
0.03329524981032456 
-0.08097772903101433 
-0.05965334949417123 
-0.0478554283582965 
-0.1371521201935965 
0.1357349268594273 
-0.005493829142684683 
0.2715881403476438 
-0.03199119206134094 
0.007276552989907451 
0.1203703251730418 
0.1255743879167044 
-0.1990185176804201 
0.08049216025552837 
0.1290491558923531 
-0.1264405558357273 
0.01433767846604521 
-0.02471450249278863 
0.2139183759332795 
0.1107802183101799 
-0.03636483345068989 
-0.008240848192422693 
0.08960837140098538 
0.002079534250443839 
0.1913514252215183 
0.2223982090722444 
-0.09981246944463482 
-0.04316994122635766 
0.03968714394428524 
-0.02362023200659555 
0.5419231493122794 
-0.02207401157707619 
-0.0412078463899204 
-0.0572366047081207 
-0.2544315414816227 
-0.1101189895129031 
-0.0599261044287456 
0.1129820333523265 
-0.02613093793352958 
0.05443528148531285 
0.1673203985298736 
-0.007359224436619015 
0.1259334875483737 
0.2116548163378336 
0.112657894429998 
-0.01030829232544197 
0.188762202158752 
-0.1401289666431128 
-0.09025365840019342 
-0.09231565499712996 
-0.2550144970054581 
-0.07719460958176086 
0.001137655352759141 
-0.1029446797175324 
0.1088583759256635 
-0.1082614373443029 
0.2274572570948707 
0.158748382486532 
-0.06540444263081993 
0.1682742136045405 
-0.04978389079234481 
0.07638553957721816 
0.03709695887057163 
0.1125468774982097 
0.09235732026914178 
-0.1363522591167664 
-0.171284004384844 
-0.01257141515734336 
0.1926737859167783 
-0.06983326992926474 
0.08366352901647137 
-0.08362690733803187 
-0.009106634300751218 
0.6790787924658567 
-0.03433008304127907 
-0.009291810056762627 
-0.04645339472631691 
0.671444129901454 
-0.01455740210091974 
0.1518744639988903 
-0.1400142145872448 
-0.06493910326984395 
0.2566507100534058 
-0.0247312050914936 
0.02391176962350932 
-0.05653289400114216 
-0.05712153473751399 
-0.1244291957044127 
0.3204669787571438 
0.0930469546354238 
-0.01029745128339411 
0.05277418608427801 
-0.08101795123849062 
0.004505212551989582 
-0.08323747581691225 
0.03660175253084185 
-0.0121194297876836 
-0.01033595013433451 
0.1137130225062933 
0.3374096751361355 
0.2446813487958224 
-0.0191078849463969 
-0.008984460689883868 
-0.01842922088653328 
0.04695925636098903 
0.1075092896704629 
0.02249671416123016 
0.0005382595056535754 
-0.06215959921653712 
0.2947164113265491 
0.0984184558252183 
0.1840863105469784 
0.05462878113040485 
-0.05338640382420378 
-0.08122317605122994 
0.148816497247875 
-0.01232622735390317 
0.0634645656860251 
0.5491129070980573 
-0.1797667726243278 
-0.02934183928951458 
-0.06762515804312504 
0.0509953593751513 
0.42523694521001 
-0.1141191640832712 
0.09432877590844793 
-0.2364503142946311 
0.02001990335075931 
-0.004060853935327362 
-0.2737818669009476 
0.08999770672553131 
0.1147382296507144 
-0.06949118860039009 
-0.01760553785883993 
-0.1756285473744754 
-0.05007834687944038 
0.05939755259851364 
-0.01993582207798469 
-0.0672964201449965 
0.1029208100468072 
0.006351976801259505 
0.02672948069958302 
-0.135881438956751 
-0.04084873995648414 
-0.1583238437776946 
0.19924571084117 
0.3198711802509323 
-0.07106423128671349 
0.01689484936875851 
0.03383801512994093 
-0.04809640663863889 
-0.02304583232833991 
-0.09808264019745813 
0.002705422806672785 
0.1156584808015508 
0.00517196739124275 
0.2645653821152676 
-0.1548051940618091 
0.008705934131777379 
0.009996094670480413 
0.1899439916963915 
0.1100109154969725 
0.1239798550094296 
0.1433798284797583 
0.1077373229441771 
0.03978727626380997 
0.04380998435405215 
0.01611878208002833 
0.1825094083629409 
-0.03022718183478933 
-0.03518747606451955 
-0.03072868019750509 
-0.04269922687993658 
-0.100315998128327 
-0.0113180107470618 
-0.0147064118382477 
-0.05079577375719384 
-0.3550817203114414 
-0.2311234586125932 
0.09039257309359174 
-0.02233185012516976 
-0.1177238780710781 
0.13598493756596 
-0.1714975291511295 
0.02608352213834056 
-0.07455241772858358 
-0.01265783143992635 
-0.03554100691853161 
0.1158423648438621 
-0.01690525403164247 
-0.08569415563124506 
-0.02555512856946188 
0.04313844543617527 
-0.0079880469622699 
-0.2083179791739037 
0.03827156255249928 
-0.08059669128803283 
-0.01583979021704213 
-0.1419952955468391 
0.1415619276073306 
-0.1892855833007141 
0.1818022248528477 
0.007639809814023598 
-0.02419900875201763 
0.01534882869898728 
0.1700852443494803 
0.1118758151708139 
0.08127639980418948 
0.2439233985698797 
0.1782723723043185 
0.06937072341722421 
-0.03343860640273359 
-0.1883062740308589 
0.02624138988963831 
-0.09359794470440384 
0.1343712644985381 
0.062719672430224 
-0.07473597166655011 
-0.1301303092061034 
0.06660605928534645 
-0.0202404954261652 
-0.0460254666650325 
-0.1465110446841363 
-0.3145317375620199 
0.2387529848994144 
0.226341204608545 
-0.08570713924449115 
-0.06205412834883192 
0.08859021247693662 
0.06463914122629187 
0.05790553199957814 
0.0166341989231802 
-0.01488421570400563 
-0.05104188408803533 
-0.1335968041185666 
-0.1000753475681572 
-0.1464673168911736 
0.09283579276090714 
0.005232083875072713 
-0.04295148080620842 
-0.1361288163585235 
-0.09004418338469841 
-0.08450621758749619 
-0.2797182939190515 
-0.3021113945426397 
0.0517275531107302 
0.5432249027948426 
0.1163690642990712 
0.01379666765260468 
-0.02705524932021052 
0.07836896267127755 
-0.04035339032068692 
-0.04615142268856701 
0.008320530637001177 
0.1713136901741944 
-0.08638100543397093 
0.267319559484164 
0.7643811484929941 
-0.0559288059734021 
0.01890121077573616 
0.2837133923904871 
0.02619105476797321 
0.1454633389544913 
-0.2747332177466472 
0.137158288417867 
-0.1449475779620007 
-0.212649818106684 
-0.07033430714024233 
0.111665187764007 
-0.05134159961712517 
0.0606082083087006 
-0.08356816071071181 
-0.1030256144704116 
-0.505464602810698 
-0.03127610064654585 
-0.06069066189354157 
-0.07165950513632756 
-0.476870846048077 
-0.2229947164254027 
0.09954107433072204 
-0.1160008865548613 
-0.2155060377014546 
-0.07754105162310108 
0.002880243998543815 
-0.01338965824342699 
-0.03144948196952418 
-0.02387861926350169 
-0.02625178309400897 
0.2136678874765549 
-0.1517393849871824 
-0.1843876978494254 
0.08008511636112654 
0.08164044400131459 
-0.04958760954082036 
-0.02386070908062231 
0.102909988738719 
-0.1025105713484945 
-0.0173790018093167 
0.02491986189630494 
0.3030346356190298 
-0.01607947270922595 
0.07257446144608422 
-0.0460260581625215 
-0.008599776842453902 
-0.1016623742607078 
-0.09067064826531655 
0.05141754464352522 
0.2625036084971247 
0.8347241700048365 
-0.07194473032543856 
0.03057555817797056 
-0.05624669762612666 
0.2269368302263633 
0.02300138395093606 
-0.1291336937838562 
0.09612970372994946 
0.03589996368409983 
-0.004949448034353143 
0.1655937718389313 
-0.2907258382808389 
-0.1385512664239457 
-0.06232028189628083 
0.5384749892946766 
-0.3098641359724447 
-0.1667742474052735 
0.2528421177212885 
0.5581634735673889 
-0.0478846200449719 
-0.1754432140195205 
-0.1555377081034251 
0.3972913661122376 
0.003695336048084748 
-0.03808672266666834 
-0.05811547403130542 
-0.2617910850598888 
-0.1061617892429738 
-0.09379157948492819 
0.01786308505299813 
-0.0346214073043668 
0.02493376471547073 
0.1221098472008889 
-0.03554973962468868 
0.0768875494382656 
0.1482265332790932 
0.04409736515850746 
0.03251666918074692 
0.09718967071302161 
-0.1457533479916328 
-0.07611153514009926 
-0.07775801044447235 
-0.1739172012079567 
-0.0498496196979619 
-0.06717381796497152 
-0.04992179786636266 
0.09391034463067098 
-0.09993163216006462 
0.2607823675006876 
0.08747331550999597 
-0.06521651418192449 
0.09201933331718153 
-0.0466832781568217 
0.01707929039199204 
0.01985501403819889 
0.05260068050090495 
0.07808712558293042 
-0.1649746504687163 
-0.1379617913110484 
-0.02197795128037018 
0.1644536449516929 
-0.06723001852840929 
0.07326197246261099 
-0.1117883855566757 
-0.02085487882233693 
0.6257567312459169 
-0.0303072259558978 
-0.002696533527502282 
-0.04362882579251488 
0.5134869480231318 
-0.09070995624606465 
0.113187825931511 
-0.07838593301848169 
-0.0719474067820963 
0.2108682522528305 
-0.01578734113742977 
0.0189182565140925 
-0.02813594054936368 
-0.06832788717769205 
-0.09076499525144502 
0.3439910052813238 
-0.01259795853310937 
0.01879765255467991 
0.0325355670495104 
-0.04177220025385774 
-0.00330644431671273 
-0.1303387584539162 
0.05451557502176171 
-0.004955438692518417 
-0.01168919800119892 
0.1055740977461988 
0.2809919842578321 
0.1773947521024411 
-0.01932180728003253 
-0.0213016795051532 
-0.02623033905244215 
0.006938751588728646 
0.1066250138281864 
0.01636168855503729 
-0.0288253120946854 
0.0198444898302372 
0.2885931601843366 
0.06200815217791356 
0.07283610151448253 
-0.05816297665853751 
-0.04228585541197401 
-0.09646543091823302 
0.09121533439353814 
-0.0457724650307992 
0.04226631639841231 
0.3739714879976004 
-0.2621152835411226 
-0.05351638364926392 
-0.0585237890893238 
0.01689736175503071 
0.2663333782549635 
-0.1250742345582538 
0.110793672581847 
-0.2964044545523916 
-0.0008568321136694993 
0.002879726619316819 
0.5458053623551909 
0.8828346684400026 
-0.06010799823223136 
-0.1185900109677655 
-0.08928283039822536 
-0.09030423597718651 
-0.1271304335152255 
0.0414128384107371 
0.318964024329577 
-0.05825948649091403 
-0.1554243498422317 
0.1718952852786367 
0.007860320175313398 
0.0005695236456350627 
0.2830147701506543 
0.6751288628387595 
-0.3329095105533053 
-0.328379016567685 
-0.005973200189125271 
-0.09149168347655631 
-0.03223385557146016 
-0.1543244065206636 
-0.08028331201907517 
0.1138207673704957 
-0.2291044071132773 
0.3378006806651225 
-0.08615895828641601 
0.6825109274698713 
0.7588310793108372 
-0.03958451085694317 
0.2730597549892572 
0.2303205775616622 
0.00936417304542193 
0.035270195069202 
0.05155751518796523 
-0.09503407124034058 
-0.1342008752502257 
-0.07407371100527482 
-0.08322336398362951 
-0.1219922037567497 
-0.04800175890151707 
-0.04030947003327517 
-0.095202895820674 
0.006321626622900214 
1.278576250109263 
-0.1016717425698326 
-0.06254199850443333 
-0.08194669699539096 
1.403947743595814 
0.716815985950781 
-0.03915112919512845 
-0.08897115863491821 
-0.2316118496187123 
0.3486690743200532 
-0.2001722804690069 
-0.1332504341003422 
-0.1264213038132702 
-0.1435327804164193 
-0.05281999046578853 
0.5681036955996579 
0.3165040980479523 
-0.1352473599062739 
0.228130492680372 
-0.01014316881419832 
-0.09873133770681496 
0.3211997077359722 
0.00467191967888369 
-0.06626770321126001 
-0.05024624705848584 
-0.0531422051982721 
0.9549142749753763 
0.126583889499279 
-0.0353604832479231 
-0.110664933599092 
-0.05900061364702888 
-0.0564471238140492 
-0.006744416111298067 
-0.05365852257368763 
0.5127641712745563 
0.4109131896687726 
-0.05725442874633131 
0.3507919153994552 
0.3542678904547916 
1.329408205333385 
-0.03260684214466369 
-0.1100467397499775 
0.1345318341964413 
-0.1883431591962115 
0.04918275250376766 
1.088576288395889 
0.3955387950686682 
0.07151924709202963 
-0.1186948525468418 
0.2413712120216194 
0.7092027197429143 
0.2585770587458765 
-0.0068907488515054 
0.602238400533076 
-0.03214986542761808 
-0.1696441314075802 
0.03401761565816794 
0.03897840317140307 
0.001614751488376585 
-0.01859811166084981 
-0.03775014171922601 
-0.1382078085378634 
-0.1035435784662684 
-0.1688645784201902 
0.1260391250977364 
0.01066823654131613 
-0.05539925927228825 
-0.1524532715693585 
-0.09336241888579727 
-0.1018388323589751 
-0.2615104009703085 
-0.353287165264409 
0.06971042313730257 
0.6081066260604828 
0.1055692234342688 
0.01615637744777117 
-0.02347997381848859 
0.04711590149928236 
-0.04091163048772584 
-0.04012782161438819 
0.01603926277185561 
0.1453465356235808 
-0.07842327495718719 
0.2988442308142779 
0.5998801499514036 
-0.04984614434874854 
-0.003193611765196341 
0.2602186603817149 
0.01465094830998702 
0.1518665216543972 
-0.2877247127670247 
0.0980356122747115 
-0.1364134224913051 
-0.2112527526259945 
-0.06753671281905504 
0.08393834613803015 
-0.05673825521372168 
0.06302001871382036 
-0.08317639833114121 
-0.07621308839456023 
-0.4817394611405617 
-0.03132367646641952 
-0.06093749860596441 
-0.06533814266307236 
-0.5476534210963968 
-0.2245014960174544 
0.06283492016609661 
-0.1113357191614387 
-0.1888500130869543 
-0.06963989954736928 
0.006603376947597181 
-0.01278970632920175 
-0.02886712444694606 
-0.03573336558298375 
-0.02568998177889622 
0.166463748241104 
-0.1634673730392072 
-0.192888318139866 
0.08811768590497492 
0.06691788824476574 
-0.05206155458877027 
-0.01260867937098218 
0.06419734724260229 
-0.09075649342606355 
-0.01827733355817794 
-0.007336016123949672 
0.2361770550674655 
-0.0003199285259975906 
0.07183166459426893 
-0.03819099032397227 
-0.01075988788620975 
-0.1242467257085553 
-0.1075512683137936 
0.03124791956982249 
0.2131730461645758 
0.7234513251486017 
-0.0611190767371294 
-0.003940587736605957 
-0.1228669137921432 
0.09615283699516528 
0.01100180780212948 
-0.1541335927005214 
0.11356132535917 
0.03606224474472269 
-0.006411345494763879 
0.1009139019668384 
-0.2763751390190312 
-0.1343210537102083 
-0.0586424606715474 
0.4545711457617005 
-0.3379635577360453 
-0.1683924864643745 
0.2415412380718578 
0.486461228458796 
-0.06737946298395797 
-0.161656892236643 
0.2222338418464191 
-0.2421405973323687 
0.003524292021644377 
-0.05533856990481324 
-0.07950816880179032 
-0.1595281130361862 
-0.07660407814662419 
-0.1902224688321628 
0.8534542515489199 
-0.02046437363049273 
-0.06880223173286752 
0.06970885781681863 
-0.002369973852052337 
-0.2813773534972971 
-0.1170735487463229 
-0.02106363932329903 
0.192375754575904 
0.5423138195562806 
-0.02833083071512242 
0.02306540568972005 
-0.1392459810455769 
-0.2062428328867593 
-0.04159325330957732 
-0.09082633311966046 
0.04667753464593716 
0.1377391318991273 
-0.08654779024329462 
0.102719881868693 
-0.05184314282261186 
-0.03811545282063288 
0.02863759789918095 
0.06428057449685784 
-0.114898758144326 
0.2700578240899881 
-0.09825362045064895 
0.07595790861922978 
-0.1775902966277138 
-0.0931284312699568 
-0.04263236632760387 
0.07727068078331314 
-0.01881747378414367 
-0.027791276072352 
0.03607916070513598 
-0.08011749146387219 
-0.1846969668742954 
-0.03887685555867648 
-0.03716572238496683 
-0.017619529819445 
-0.5433587548004868 
-0.06123299383256847 
-0.1722606707105127 
-0.09834652589370158 
-0.1953349833903031 
0.1242723718090251 
0.04364635336713904 
-0.04377403367108802 
0.06272462523145377 
-0.05699160434635134 
-0.01317509492436094 
0.2934670189488645 
-0.07809980358472059 
-0.02089837825543128 
-0.01424350245196365 
-0.02249526833842334 
-0.01979010624688217 
-0.006438474899186921 
0.163744984820983 
0.0476163210835623 
-0.01282830874735284 
-0.05537667651028486 
-0.09882439253447882 
-0.001203404978035722 
-0.07557311277399188 
-0.02434692413413014 
0.0378873400378763 
0.1402590049300388 
-0.09341672373361688 
0.1223416750021121 
0.3888037357907125 
0.0007726436850189282 
-0.1380012084970919 
-0.01526825408972305 
0.1984690234569699 
-0.3209746617415327 
0.015307574475899 
-0.1995707618556647 
0.1636732193167362 
-0.1067089193195641 
-0.1419071107113912 
0.122463264787187 
-0.1728060457765681 
-0.06980304974691551 
-0.03807594880992368 
0.04643291953584201 
-0.3328793303803683 
-0.04718053774299492 
0.07426828781048929 
0.3714669617512981 
-0.03434933275777019 
-0.04109268952862274 
0.4044891309739621 
0.7189565258584535 
-0.08182451879382173 
-0.1099460503056604 
-0.07905271394946942 
-0.05679313398277603 
-0.1191775325541759 
0.0212971816667867 
0.2751268210497264 
-0.0490244151783899 
-0.1525061565231759 
0.1288302942511573 
-0.01724091550425853 
-0.02610909220026693 
0.2458173827594502 
0.5950485799593624 
-0.3214126469236949 
-0.3505084253831092 
-0.05635779406404064 
-0.0831067107586841 
-0.03780031314047714 
-0.1356406942164383 
-0.07260422404913891 
0.09246203660896636 
-0.2103077730566482 
0.2882876084118523 
-0.06664080464023991 
0.6510230299567406 
0.7179435454295012 
-0.03666894751950052 
0.2341315246621863 
0.1996233388642908 
0.008292860990782676 
0.02522262972545743 
-0.009545627766089963 
-0.09458348464725927 
-0.1474537331403547 
-0.119702885712206 
-0.07943528397426848 
-0.1114683618188564 
-0.04326402930173315 
-0.03916701632650239 
-0.09311284252274765 
-0.008924744509910518 
1.128205809707095 
-0.09349812741858499 
-0.0620243545485477 
-0.07327572683948795 
1.219545225137144 
0.7003945148704308 
-0.04717017127211232 
-0.0823652698305446 
-0.2080580054481309 
0.3195650262502976 
-0.2022861660783687 
-0.1536688148088506 
-0.1274249504054456 
-0.135856566243985 
-0.05272665493726748 
0.4274400501585536 
0.3011853065562218 
-0.151713172506541 
0.2179564848032437 
-0.01143618754499703 
-0.1008298425004975 
0.2922224332362334 
-0.02251284347580813 
-0.06980989490074554 
-0.04539546280738398 
-0.06742876775636661 
0.9253665325479079 
0.1110445394099382 
-0.04122879154060067 
-0.0945656242657343 
-0.07128798829048159 
-0.1049878436844295 
0.02268054276801686 
-0.06559187149886248 
0.4289953129990127 
0.3732614095100206 
-0.06403562913304327 
0.3048439277864826 
0.2872397216920575 
1.29106616629676 
-0.04718458279252783 
-0.09046998090180305 
0.09895522467015737 
-0.1749653206404543 
0.03833629763451341 
0.899269248499642 
0.4249082217258556 
0.06367184680573343 
-0.1133514222810063 
0.1884821998233719 
0.6208177264175871 
0.2164598841054838 
0.008010562852832529 
0.5677021055776444 
-0.05197733191935707 
-0.1713927136402585 
1.258920666257272 
0.8263682991864543 
-0.2016882704443599 
-0.04714319017362378 
-0.1543162182500756 
0.2619570408102263 
-0.1049656717936244 
-0.1891857828472654 
0.5112090837315441 
-0.09389851668633718 
-0.181662627631506 
0.3126555041740497 
-0.1429748601474898 
0.01055902009912525 
0.6438230935933398 
0.5807698967572954 
-0.164751926654612 
-0.1256322899994199 
0.2574663155830073 
-0.01846883217239951 
-0.11249460679788 
-0.280985041970185 
-0.06766235866735884 
-0.0482656767831082 
-0.04761986770922765 
0.3225367499845875 
-0.12535608065027 
0.5126219063190948 
0.3627502352778745 
-0.1035913817338979 
-0.1571368649212295 
0.05038132305691185 
0.156672411180777 
0.5369603443899168 
0.01239562699609921 
0.2919251447702175 
-0.05027985269195571 
-0.1980701668830686 
-0.08048084195221968 
-0.0831679844118747 
-0.05529475459996139 
-0.04893664150626891 
-0.1196857772132088 
-0.0431733602382769 
0.2877023145433698 
-0.07110767775929475 
-0.06612583071905649 
-0.07704884228618773 
0.5428967372101923 
1.533003902339952 
-0.2066472401011208 
-0.2065968495061178 
-0.1401289222786931 
0.2170600609292108 
0.01800982722254292 
-0.04127342216211308 
-0.1186560296431768 
-0.02266725218533334 
-0.05704622002541762 
0.2355848780398938 
0.6449946301111968 
-0.008615525171508003 
0.03558589482168254 
-0.01327929662477978 
-0.05619828813409279 
-0.1296188806337811 
-0.07914663432743348 
-0.1244455081657492 
-0.06677490773434219 
0.2537152739141584 
0.2656112595123239 
0.2492270017234577 
0.1516409989107559 
-0.01694819708012421 
-0.0387690682896731 
0.02937505978939594 
0.001536324317054389 
0.1128506053428413 
0.087552848495526 
0.1284974563616212 
-0.03293142969658405 
0.1070143424017678 
0.623681337598421 
0.622215482630436 
-0.0335917477461154 
0.1398774919054558 
0.416083333841192 
-0.1535443526109998 
-0.08981579482695494 
0.6017221096782073 
0.9317278188772296 
0.05155298596878538 
-0.09420206515788446 
0.06062021612149588 
0.9663666810151742 
0.2933091236612061 
-0.3570425025010232 
0.4047433641709208 
-0.2265304336157115 
-0.1112402373191047 
0.3775962603187681 
-0.1287370294830805 
0.01892830853101814 
-0.05594508928664787 
-0.07564722649366817 
-0.1589176004357744 
-0.07666744943142834 
-0.2054938488930092 
1.071387979087407 
-0.01834843447144086 
-0.07473515528866481 
0.05986964205517241 
0.01778228001156783 
-0.3073032427819244 
-0.03609070762613267 
-0.02127504430526317 
0.2034763400344537 
0.5616148771845003 
-0.03334405851412529 
0.02238925143876433 
-0.1109303922937419 
-0.2177538605676628 
-0.04126597622637133 
-0.07681818045217212 
0.04284790181886364 
0.09407277480634647 
-0.08899576949681105 
0.1210198783747745 
-0.07073047915861654 
-0.03899653728792568 
0.07177390286301065 
0.06970314664960728 
-0.09276919483406493 
0.2995324348162408 
-0.06172535853090164 
0.09261052904336545 
-0.1793350488712618 
-0.07428723463609366 
-0.04600174382456871 
0.09967327520320793 
-0.02168330347217426 
-0.03333094281765991 
0.03982885508586812 
-0.07999445542492205 
-0.1948136683635267 
-0.03877792445384497 
-0.03268044553085161 
-0.0193411830764875 
-0.5534610424774743 
0.09137728160106426 
-0.1824318381437275 
-0.1148335688017404 
-0.2091487204673163 
0.1391504546405135 
0.08646569944557136 
-0.04581422854514842 
0.06624806823193551 
-0.06265469491598402 
-0.007793864722469609 
0.2689780303374574 
-0.05414035571447114 
-0.02883760260721389 
-0.02111129579961969 
-0.0214086040378996 
-0.03517099547623385 
-0.01518100366563288 
0.1969879856170151 
0.04612448408255216 
-0.01045123975747298 
-0.04777051552723077 
-0.1229224403722542 
0.0659020126133784 
-0.05147962813151059 
-0.03342663554109881 
0.03599946330622875 
0.175161658823048 
-0.08093749146255939 
0.1196564859099894 
0.3787011368499143 
-0.02785177637264907 
-0.1097109329798486 
0.02709879067903026 
0.2393248304254377 
-0.3284608257049705 
0.01628932929240714 
-0.2135316170778399 
0.1970626936044744 
-0.1059443150178791 
-0.1543996973442486 
0.1996307034381001 
-0.1436588695544435 
-0.05310349444414442 
-0.04031810812681971 
0.0841788049557019 
-0.2474465019573008 
-0.05828688855753787 
0.07953710871160702 
0.4294222960521264 
-0.04911077509984102 
-0.0435425120155315 
-0.09436159000325664 
-0.292961121197383 
0.1256631890072183 
-0.03124215817896127 
-0.02213997949599982 
-0.06561980128070211 
-0.05209753992843982 
-0.165224340291375 
0.03713006780361681 
0.02371123603800284 
0.1294164702175116 
0.1172296152507298 
-0.005991465063714159 
-0.1473977736269639 
-0.1464631333314515 
-0.2551238403872272 
0.09081829043754619 
0.02757539894293954 
0.1425607428219962 
0.00768848954678469 
-0.054186131580585 
0.005563267236081645 
-0.02720356690183913 
-0.04149239698935811 
0.042141030352795 
0.1128895964507064 
-0.01802732350382374 
0.1865287078560057 
-0.1382372487491881 
-0.0303663400971565 
0.04008773831373619 
-0.005968944423196716 
-0.08987118703075674 
0.07568724490055445 
0.06602152878095077 
0.1321110641362656 
0.06999324541666438 
0.1052818716174187 
-0.016418110582006 
0.335430787093964 
-0.01209646882072638 
0.05666738333286787 
0.05511838838377377 
0.1313229409335746 
0.1863422459989685 
0.0364345084021418 
-0.03429205267527257 
-0.04745662805350836 
-0.432918239438536 
0.06042705295238399 
-0.02113017115472871 
-0.03920050953223259 
0.02546337907542755 
0.1002118678987185 
-0.1928158145312111 
0.04509763732417489 
-0.02779473708635005 
0.03383962230851795 
-0.03886055746567425 
0.1395578801206219 
-0.1070547996712394 
-0.01820809055352683 
-0.02055900338144441 
-0.009447822612801604 
-0.006647885288362041 
-0.009132287628840392 
0.14091123399725 
0.01729449952899588 
-0.01924703731092517 
-0.0765294307073929 
-0.1748896632251655 
0.2015729452155925 
0.1121753950232813 
0.01954501980172867 
0.006957976240757241 
-0.07234232994425241 
0.09049093532666298 
0.03678349334830546 
0.1600301502848323 
0.07764461280014709 
0.1913501446884985 
-0.1413243614013537 
-0.02143478955111043 
-0.4448853560563627 
0.04425609362810351 
-0.1241144615228174 
0.1140984278802118 
0.2160749466962082 
-0.04772488122217505 
0.08351733433653508 
0.0623312253033933 
-0.1797935167812665 
-0.06152162015949339 
-0.01460914523969372 
-0.1859104174789725 
-0.04145956709755039 
0.1170928242364442 
-0.1344238325317466 
-0.2091039576864558 
-0.02803864660477229 
1.416948272587897 
1.087066945442107 
-0.2156668085418086 
-0.0635677986102664 
-0.1492493510089188 
0.3081195336132855 
-0.1118977040658118 
-0.2431439107795091 
0.5645337517258256 
-0.09178061264411551 
-0.2077977471988886 
0.3151607238841478 
-0.1503299760575796 
0.008350049345302998 
0.7488717874013717 
0.5678927208880368 
-0.1801349719076507 
-0.06063987873662286 
0.255579539207189 
-0.02081534030281039 
-0.09320087540456065 
-0.3256195204118042 
-0.06975215264481154 
-0.05336327934867743 
-0.05028715489672977 
0.3889957277899588 
-0.1268846207120539 
0.6447631755121822 
0.4236145680958641 
-0.1088349655493882 
-0.1649159194694007 
0.05740289794502082 
0.1899710862040036 
0.5990166552590573 
0.03920119522694412 
0.3306763708636315 
-0.04656128473228113 
-0.226526167236101 
-0.08757029271895399 
-0.07642926598906871 
-0.07519859490102171 
-0.03952199954984929 
-0.1131864530339958 
-0.06142568518495549 
0.2638854586305123 
-0.06889081543228627 
-0.06727499828895675 
-0.07943812490373006 
0.5342151347625699 
1.604968416372036 
-0.1530172252841503 
-0.243584284711566 
-0.1374952645221258 
0.2026625944695137 
0.04619536104354467 
-0.06029814129376831 
-0.1145168048446414 
-0.04066349198285726 
-0.05946120326135259 
0.2917870936296716 
0.6737010970023646 
-0.02593232786697425 
0.05800473876616812 
-0.02108650577008629 
-0.0598551030010713 
-0.1689557047882522 
-0.06565036185325124 
-0.1334595694669967 
-0.06728122770446242 
0.266025116566682 
0.2805201848321899 
0.2823596883431221 
0.1483354493897956 
-0.02261386129086344 
-0.03805327789582235 
0.0005449614013170288 
0.001908416399680745 
0.1048276975271603 
0.05107951947750376 
0.1264158723686637 
-0.03071883230105036 
0.08619979984036583 
0.6887980432387961 
0.6982471244413054 
-0.02610178371109113 
0.1758777153955786 
0.4461361402209064 
-0.182515546562381 
-0.09090056560846496 
0.786065782304105 
1.021059079013795 
0.04537674740503937 
-0.08709104434032239 
0.09246491152644479 
1.163638764887053 
0.3333491372273249 
-0.3514700924261072 
0.4602187888741657 
-0.184081359443529 
-0.1064214382068379 
0.2730866752351042 
0.3468602915148322 
-0.02670335026632412 
-0.06830322950484004 
-0.100229159114352 
0.001673349000731918 
-0.03350381949070784 
0.01005755856251926 
-0.006562106012321882 
-0.0961785645722027 
0.09837975130089215 
0.1092753496863934 
-0.08119439092198887 
0.03773302829458032 
0.01915986651313959 
0.3429466332958896 
0.1918595446291082 
-0.0071300315281671 
-0.05098170433322259 
0.05086996084295226 
0.0303299352385348 
-0.152983156252107 
-0.06271401850039703 
-0.05408338000100493 
-0.01500362925401327 
0.3165207244867875 
0.009895560961967252 
0.2044412558368318 
0.2841053105965242 
-0.0525391838840848 
0.174576078714175 
-0.0007502673060213273 
-0.01657986182264977 
0.3463753792407049 
0.03304707740223334 
-0.01085918368597817 
-0.1367876273305044 
-0.2434245234675748 
-0.03833345073690119 
0.2172831705398053 
-0.030846507536403 
-0.06637253118689539 
0.0043703438443368 
-0.007822285220674092 
0.02217674523279303 
-0.03364046413285631 
-0.05836348006313193 
-0.01474470118729867 
-0.1140186722206586 
0.1787910668800829 
0.07009167301030682 
-0.0955410249893734 
-0.07780269074211447 
-0.04961858002724293 
0.1565529533683647 
-0.04540168360784828 
